bert/embeddings/word_embeddings/embeddings:0
(30522, 768)
[[-0.00998793 -0.06250507 -0.02579819 ... -0.02075663 -0.03673674
  -0.00899135]
 [-0.01170495 -0.06002603 -0.03233192 ... -0.01681456 -0.04009988
  -0.0106634 ]
 [-0.01975381 -0.06273633 -0.03262176 ... -0.01650258 -0.04198876
  -0.00323178]
 ...
 [-0.02176224 -0.0556396  -0.01346345 ... -0.00432698 -0.0151355
  -0.02489496]
 [-0.04617237 -0.05647721 -0.00192082 ...  0.01568751 -0.01387033
  -0.00945213]
 [ 0.00145601 -0.08208051 -0.01597912 ... -0.00811687 -0.04746607
   0.07527421]]
bert/embeddings/position_embeddings/embeddings:0
(512, 768)
[[ 0.01713706 -0.0249738  -0.03661955 ...  0.0021396   0.00058197
   0.01619934]
 [ 0.00815752  0.00417912 -0.02026714 ...  0.02849673  0.03125485
  -0.00584749]
 [-0.01270607 -0.00146551 -0.01309271 ...  0.01359117  0.01776071
  -0.00679047]
 ...
 [ 0.01741793  0.00349027 -0.00956214 ...  0.00295993  0.00043435
  -0.02694891]
 [ 0.02168666 -0.00602163  0.01473564 ... -0.00561184 -0.0125898
  -0.02808497]
 [ 0.00264128 -0.02329786  0.00549219 ...  0.01753694  0.02754975
  -0.07765596]]
bert/embeddings/LayerNorm/gamma:0
(768,)
[0.9272146  0.8867172  0.86037755 0.86050224 0.8937344  0.895763
 0.93095046 0.9144567  0.9378073  0.8106209  0.8002416  0.80624574
 0.90363353 0.8181073  0.9089671  0.85185945 0.81478745 0.86072457
 0.916413   0.86332834 0.9229695  0.86813563 0.9045773  0.8678264
 0.84285325 0.8980296  0.7857168  0.92682517 0.85135573 0.84310037
 0.91692847 0.86389446 0.9189324  0.9649073  0.88600206 0.867929
 0.91071934 0.8751201  0.912054   0.8891539  0.9124873  0.9360392
 0.88066804 0.8625073  0.88272166 0.86910754 0.85652333 0.9438878
 0.91377383 0.93758655 0.92577046 0.8513275  0.93010443 0.34414065
 0.8665526  0.8188874  0.8724861  0.85704386 0.89386034 0.80695164
 0.9005471  0.848907   0.3861029  0.8903796  0.891541   0.877041
 0.8955037  0.95512116 0.89219135 0.89181405 0.9483473  0.94793
 0.9336632  0.7811519  0.9229503  0.79624534 0.8817431  0.38422647
 0.78816164 0.849045   0.8895636  0.9213795  0.9301354  0.8987196
 0.7781262  0.8262642  0.87025195 0.87745345 0.90242565 0.9177815
 0.8612344  0.87698334 0.70763093 0.85834324 0.8996588  0.80883574
 0.39998737 0.7906063  0.8942061  0.9118656  0.94512177 0.9462446
 0.87245345 0.8402616  0.8019829  0.29060087 0.9292875  0.90706855
 0.8842299  0.81074256 0.91063327 0.8941959  0.90315735 0.91286755
 0.89777446 0.8746154  0.898647   0.90586436 0.8957897  0.90028447
 0.8685329  0.15202603 0.87004095 0.88900954 0.6419939  0.85478085
 0.8657662  0.78888863 0.89490914 0.8351733  0.9115459  0.88769513
 0.3994426  0.8830943  0.8971318  0.92704433 0.900624   0.83386034
 0.90648144 0.42112294 0.91830534 0.9073542  0.92119837 0.90888333
 0.91914546 0.1852716  0.9128749  0.8454307  0.8436918  0.8335254
 0.8062824  0.906798   0.7305594  0.8853354  0.9462211  0.9102343
 0.91265094 0.8367443  0.91751856 0.1251273  0.9130871  0.91381335
 0.84404886 0.9832564  0.91777754 0.91688424 0.8619654  0.84153867
 0.38416523 0.89606935 0.9374433  0.892678   0.82825816 0.9456244
 0.93311805 0.11855005 0.8462972  0.84041923 0.8690779  0.86116785
 0.8931556  0.9357909  0.87321603 0.9313696  0.93461084 0.9186024
 0.92142403 0.8725067  0.93340915 0.84109014 0.8797422  0.89153606
 0.87108564 0.8593582  0.8768774  0.8868307  0.9147399  0.9140712
 0.7972812  0.807843   0.87070066 0.900192   0.2737206  0.86123884
 0.86164075 0.838174   0.91179574 0.8461029  0.93669933 0.87037504
 0.85389304 0.9506645  0.8370752  0.90789706 0.8760662  0.2616489
 0.12561125 0.9094925  0.5221995  0.8560402  0.9282978  0.8851425
 0.94380575 0.87842745 0.82075244 0.34885824 0.8378284  0.77740115
 0.92890435 0.8966293  0.8765902  0.8790406  0.87701523 0.9080397
 0.9162531  0.8855155  0.8645655  0.8010293  0.9240957  0.79484564
 0.83774793 0.89110255 0.90574235 0.8653904  0.84172094 0.38945135
 0.84083813 0.84092057 0.8594917  0.48430532 0.8930433  0.8781336
 0.8750841  0.86240363 0.9113345  0.8602092  0.84457636 0.8672298
 0.85483074 0.8745886  0.93600285 0.8844993  0.9348883  0.8984867
 0.79290646 0.8598231  0.9089052  0.89563876 0.9064326  0.9112919
 0.8725296  0.8924328  0.8628897  0.86357397 0.933175   0.9420677
 0.834367   0.85369927 0.89000773 0.9084893  0.84319806 0.9021587
 0.9295758  0.3193088  0.89997524 0.827321   0.86061144 0.91283566
 0.8578962  0.9316796  0.849117   0.40831232 0.8582728  0.89910334
 0.85922396 0.8031932  0.3450464  0.91473955 0.8927525  0.88884926
 0.86603504 0.92904705 0.9158898  0.8957397  0.7460291  0.9121568
 0.85330415 0.87705714 0.8618475  0.890605   0.85504425 0.38525748
 0.888866   0.88671815 0.952313   0.84822077 0.92173296 0.9090395
 0.891805   0.4428773  0.89192986 0.8642648  0.8850926  0.8953082
 0.90114653 0.9071393  0.870878   0.9104804  0.9018106  0.8671003
 0.8247223  0.41545424 0.8471255  0.90730023 0.87842363 0.84474903
 0.83911437 0.9297023  0.90409094 0.918617   0.77438796 0.87995994
 0.87694466 0.89726895 0.8651171  0.37328893 0.9132524  0.8247356
 0.8873414  0.95670855 0.9143982  0.93337893 0.9034737  0.2823869
 0.8958164  0.90637785 0.88247514 0.86023366 0.8871679  0.8569481
 0.9104296  0.8367254  0.82567877 0.83363193 0.9064682  0.8686309
 0.8754702  0.87620515 0.8924387  0.8347405  0.8985292  0.8278819
 0.9277957  0.84467417 0.8824153  0.9746399  0.9023284  0.8885549
 0.83533514 0.92236197 0.8762213  0.5705203  0.8955045  0.91681755
 0.8909224  0.8966285  0.8909095  0.9217253  0.9045537  0.8668273
 0.8162666  0.8667348  0.87147284 0.8608979  0.9106083  0.8925832
 0.8624809  0.8395225  0.8684867  0.92479295 0.85351944 0.63148963
 0.85821414 0.8776041  0.7937261  0.8856559  0.9079718  0.88140464
 0.87183374 0.92946523 0.9085569  0.8742249  0.93395823 0.88460684
 0.8834728  0.8570042  0.8804065  0.8748223  0.89644456 0.3238139
 0.8577878  0.7865434  0.8914564  0.8422369  0.8506592  0.8586036
 0.88440096 0.91952235 0.90144557 0.7670917  0.90791094 0.8104339
 0.9067702  0.8183939  0.9125891  0.94846696 0.8843222  0.8146572
 0.8710154  0.87765634 0.90007347 0.8947901  0.8635704  0.37294385
 0.89627475 0.7710774  0.93600315 0.86857325 0.8887251  0.879955
 0.8832282  0.92437875 0.89380026 0.9060955  0.926696   0.94265324
 0.87690675 0.89424217 0.85062504 0.8936162  0.8673864  0.3585862
 0.909806   0.9112571  0.86038643 0.8347163  0.8460121  0.80405885
 0.83557516 0.8572942  0.89183706 0.91286176 0.8736824  0.8955464
 0.83435947 0.87613916 0.8504079  0.88869035 0.8814262  0.8586827
 0.9181438  0.8741841  0.35724998 0.9126997  0.855299   0.8607099
 0.8860409  0.89361346 0.86722773 0.8948644  0.9114207  0.8589994
 0.8927127  0.90480924 0.93479615 0.89293057 0.35745022 0.85511905
 0.91256183 0.80301505 0.8504747  0.88397706 0.85377526 0.800969
 0.7953645  0.8684282  0.86864734 0.87537915 0.9089058  0.90687525
 0.70749664 0.8043384  0.88741064 0.8712649  0.87072796 0.87081057
 0.89228004 0.34179357 0.8902037  0.87677234 0.9094442  0.8298972
 0.92515904 0.8682623  0.88819414 0.9168075  0.87900496 0.9237328
 0.89386034 0.08922987 0.80376416 0.80473423 0.9402051  0.9129715
 0.8949991  0.89637226 0.91463566 0.8653877  0.8566639  0.8377392
 0.8650994  0.1534416  0.91202    0.82800245 0.9070784  0.36225092
 0.8936771  0.8743559  0.83490026 0.916231   0.9024136  0.83974123
 0.9296579  0.9231032  0.9429922  0.92802113 0.83804595 0.8118468
 0.89827824 0.91528136 0.920953   0.8752191  0.8567425  0.90111035
 0.8449315  0.89840746 0.889573   0.8794083  0.89403665 0.9089724
 0.8530798  0.903998   0.87140286 0.6894022  0.9082514  0.89811254
 0.8998702  0.3092037  0.9060203  0.89515275 0.85401857 0.9026877
 0.90509176 0.861483   0.908772   0.8557201  0.9136256  0.8730765
 0.8126041  0.90325606 0.9057002  0.89744616 0.9293133  0.8454668
 0.81568736 0.8200297  0.890314   0.8620663  0.9303746  0.88662356
 0.8922415  0.9366749  0.9075531  0.83882105 0.88393694 0.8448615
 0.95679694 0.83126485 0.9032309  0.8635152  0.9070811  0.8160282
 0.90553457 0.80535394 0.36772084 0.87765115 0.8668824  0.95694244
 0.8991965  0.85547376 0.8452153  0.89131474 0.93426454 0.8668727
 0.9078515  0.8628208  0.89173174 0.8940901  0.8623186  0.8953938
 0.8465881  0.89062    0.85240436 0.8928252  0.9044286  0.9157346
 0.9010445  0.9236955  0.8307485  0.9277493  0.8604507  0.8424946
 0.8932251  0.82185704 0.9206787  0.84567237 0.86410195 0.89608735
 0.8748837  0.86235327 0.939699   0.91737026 0.84414166 0.8654693
 0.17416047 0.8426576  0.8110579  0.8907232  0.91824037 0.88446265
 0.89276415 0.9234728  0.90034336 0.8888311  0.92559975 0.86652493
 0.9148517  0.89617807 0.8898372  0.8601556  0.4109242  0.8817719
 0.84808993 0.83370054 0.90777355 0.9115101  0.88718605 0.8860144
 0.9416716  0.8687046  0.9061422  0.92592156 0.8334993  0.92209685
 0.94123983 0.8935385  0.86965597 0.9305476  0.90484    0.9199606
 0.90989596 0.88037765 0.8424065  0.9688491  0.87282014 0.86172956
 0.85543895 0.81904393 0.8902682  0.30802447 0.9187834  0.9015109
 0.87278247 0.8260204  0.9074373  0.8376987  0.7919866  0.8612343
 0.8972616  0.8791662  0.8074286  0.86636525 0.7923844  0.910765
 0.8528187  0.919103   0.82495636 0.8558733  0.9126796  0.8533305
 0.8428196  0.8971424  0.9205228  0.9451635  0.89308316 0.90734696
 0.86174273 0.79226196 0.86401045 0.8893266  0.8835094  0.91570264
 0.92845285 0.7494798  0.84533006 0.86112887 0.91461563 0.83552223
 0.9458792  0.81228024 0.8498403  0.9121068  0.9397878  0.8870643
 0.85580814 0.8964026  0.8309212  0.87084836 0.87656593 0.8919671
 0.9449977  0.9248059  0.89344513 0.88686955 0.90281445 0.83438736
 0.8272011  0.9225007  0.8766581  0.7862389  0.90764767 0.8824671
 0.8633389  0.9042436  0.89471287 0.7884733  0.86772645 0.9365085 ]
bert/embeddings/LayerNorm/beta:0
(768,)
[-2.49924827e-02 -1.83355212e-02  2.40717977e-02  8.85259062e-02
 -6.22800961e-02 -1.31762633e-02  1.40340161e-02 -1.26143452e-02
  4.23220079e-03  3.51583138e-02 -4.74322326e-02 -1.24829179e-02
  4.02224716e-03 -1.03389524e-01 -7.55570456e-02  2.56702341e-02
 -2.27187555e-02 -4.21751924e-02 -5.60906008e-02 -8.43786746e-02
 -8.29316489e-03 -3.67483832e-02 -4.28290740e-02 -2.35629510e-02
  2.12904233e-02 -5.25306445e-03 -6.08229972e-02 -4.75557297e-02
  3.68223060e-03 -6.88296836e-03 -4.08354774e-02 -1.04474008e-01
 -3.04291975e-02 -4.84080948e-02 -5.13724461e-02  5.31042516e-02
 -6.54380303e-03 -6.30527213e-02 -3.09434365e-02 -1.10604875e-02
 -2.56317854e-02  3.19984145e-02  2.33205017e-02 -3.88534851e-02
 -7.22282752e-02  1.86719000e-02 -4.71982509e-02 -2.43902616e-02
 -1.06379628e-01  5.20774070e-03 -2.86691394e-02 -5.82621396e-02
  1.24884713e-02  1.24306172e-01 -5.66057675e-02 -7.68946558e-02
 -3.85717712e-02  6.40142057e-03 -6.44673109e-02 -4.69071530e-02
 -2.18804050e-02 -4.07825671e-02 -7.68164098e-02 -4.92997319e-02
  3.03315800e-02  2.66480409e-02 -4.15805355e-02 -9.11715478e-02
 -4.42452766e-02 -1.94102619e-02 -5.60839400e-02 -3.36003210e-03
  4.03691642e-03 -1.58368517e-02  2.42087115e-02 -4.72577848e-02
  9.17905848e-03 -1.05679177e-01 -5.02929278e-02  7.69878831e-03
 -1.98148917e-02 -4.30065468e-02 -7.59570077e-02 -1.62014889e-03
 -5.13862930e-02 -6.08301871e-02 -4.17940766e-02 -1.61275081e-02
 -6.46471977e-02  1.28869489e-02 -5.09749316e-02 -2.70805694e-02
 -8.95775184e-02 -9.46974680e-02 -6.57701585e-03 -6.18685782e-03
 -7.00158346e-03  1.07808374e-02 -2.87517393e-03  4.93124090e-02
 -1.59414411e-02  9.39307548e-03 -2.93560382e-02 -8.77008028e-03
 -2.45387070e-02 -5.10124564e-02  7.91279040e-03 -5.76008996e-03
 -4.25887927e-02 -8.79963860e-02  1.03937283e-01 -4.48403955e-02
 -4.27688617e-04  4.95357923e-02 -6.68717623e-02 -6.70745522e-02
 -6.23752475e-02 -4.99504851e-03 -1.31097538e-02 -3.32983732e-02
 -3.20302621e-02  6.12448752e-01 -5.65328673e-02 -3.16060521e-02
  3.81570347e-02 -1.15412604e-02 -4.12355214e-02  7.97732845e-02
 -4.64471318e-02  5.52082108e-03 -3.05214413e-02 -1.66868744e-03
  2.26021037e-02 -8.75446275e-02  2.59055290e-02 -8.36232491e-03
 -3.18481983e-03 -2.63235532e-02 -2.79465243e-02  1.29164502e-01
 -2.35091103e-03 -5.30980006e-02 -4.41516377e-02 -1.11140814e-02
 -7.50697404e-02  6.29226506e-01 -2.77068727e-02  1.78443119e-02
  1.54458629e-02  1.12299314e-02 -1.60037484e-02 -2.37113261e-03
  7.84404725e-02 -2.13353802e-02 -1.83090232e-02 -1.69061571e-02
 -2.19987296e-02  2.64705019e-03  8.46789312e-03 -1.76294327e-01
 -8.38630949e-04 -4.82623018e-02 -1.10521000e-02  2.14139950e-02
 -2.70541236e-02 -1.42132025e-02 -2.70494744e-02 -1.07491113e-01
  1.86205029e-01  2.86543034e-02 -5.65353222e-02 -5.66204116e-02
 -7.57377297e-02 -1.02144061e-03 -2.94323061e-02 -5.56284845e-01
 -7.27357566e-02 -2.58845426e-02 -9.28725973e-02 -5.51302806e-02
 -1.21580036e-02 -2.38731634e-02  2.18071565e-02  1.26169771e-02
 -3.93135250e-02 -4.17179763e-02 -6.91989362e-02 -8.38900656e-02
 -1.57299396e-02 -3.79882269e-02 -9.52705182e-03  2.18304060e-02
 -2.70063821e-02  4.82536890e-02 -1.91824767e-03  3.34982062e-03
 -1.32995900e-02 -4.82261069e-02  5.73188812e-02  2.68063527e-02
 -2.22334787e-02 -1.27641335e-01 -4.38149460e-02 -1.44628054e-02
  3.31338681e-02 -6.63549751e-02 -4.99939322e-02 -1.15825012e-02
  4.62408327e-02 -5.17558381e-02 -5.79938944e-03  9.42410622e-03
 -8.91834944e-02 -3.15291807e-02 -3.43008041e-02 -8.26826468e-02
 -8.57304484e-02 -4.97149229e-02 -3.83732729e-02 -7.49960244e-02
 -8.14888254e-02 -1.59355847e-03 -3.91670950e-02 -4.02254909e-02
  2.79728677e-02 -1.09548748e-01 -5.33972457e-02 -5.09622833e-03
 -4.88803722e-02  3.26991156e-02 -7.92559050e-03  1.93615686e-02
  4.27620895e-02  2.01523434e-02  7.85041787e-03 -2.23416854e-02
 -4.17076647e-02 -1.04934715e-01 -3.77364457e-02  1.25154350e-02
 -2.04446055e-02  2.85209250e-03 -3.64513621e-02 -4.45709098e-03
  1.90766063e-02 -1.28980279e-01  8.59736092e-03  2.85400841e-02
 -4.06424254e-02  1.81072317e-02 -5.72436908e-03 -1.71634853e-02
  1.66932866e-02 -9.94050950e-02 -5.81521988e-02 -5.19382842e-02
  1.72182657e-02 -4.99946885e-02 -4.83583063e-02 -6.03093468e-02
 -3.26714814e-02 -2.17161793e-02 -6.82080388e-02 -2.72982405e-03
 -4.38733548e-02 -6.34753928e-02 -7.53958756e-03  7.29965884e-03
 -9.98768769e-03 -7.22262682e-03 -1.47136307e-04 -3.54201980e-02
 -4.37977761e-02 -1.51708955e-02  3.83752994e-02 -2.80189533e-02
 -7.28574395e-02 -9.65818856e-03 -2.21214890e-02 -7.67187681e-03
 -4.72950302e-02 -3.71918045e-02 -2.30688206e-03 -1.48976609e-01
  1.42671429e-02  2.04938184e-02 -7.37486500e-03 -6.96441298e-03
 -2.74571497e-02 -2.02979613e-02 -1.76105555e-02 -1.89804304e-02
 -1.77595280e-02 -7.34012276e-02 -1.10072503e-02 -5.30827567e-02
 -7.14171380e-02 -5.41569255e-02  5.55095775e-03  2.90288366e-02
 -3.32931876e-02  3.16018201e-02  8.78551137e-03 -1.37662478e-02
  7.48534361e-03 -9.18046087e-02 -6.28761202e-02 -1.96382273e-02
  7.98832953e-01  4.08594497e-03  6.56447932e-03 -1.58474664e-03
 -4.51885909e-02  3.54087949e-02 -5.64194061e-02  4.91267219e-02
 -3.04714758e-02 -1.06439907e-02 -2.17406265e-02 -4.27364968e-02
 -3.43212672e-02 -4.75149192e-02 -2.99239997e-02  1.22147659e-02
 -4.04148102e-02 -5.15700802e-02 -4.30441909e-02 -5.97797595e-02
 -1.53461583e-02 -4.50997390e-02 -5.21283485e-02 -8.45508650e-02
  4.24866714e-02  1.39998272e-02 -7.23917643e-03 -6.95952177e-02
 -4.58634086e-02 -6.17382873e-04 -3.00344061e-02  2.04318445e-02
 -3.24999988e-02 -6.48880424e-03 -3.46564874e-02 -1.89598016e-02
 -3.76434065e-02  4.14710008e-02 -4.24041739e-03  1.86151192e-02
 -2.56245360e-02 -5.85616305e-02  2.84907110e-02 -2.00280901e-02
 -5.42550981e-02 -1.55166745e-01  6.77281851e-03  3.96570191e-02
  6.41381042e-03 -6.32881820e-02 -4.43176925e-03 -5.42852469e-02
 -3.69759798e-02 -2.95824334e-02 -5.48070259e-02 -1.24641815e-02
 -4.38534319e-02 -1.12472847e-02  2.69292505e-03 -6.21792413e-02
 -8.74126516e-03 -3.00427470e-02 -4.82607782e-02 -2.81407367e-02
 -5.46978302e-02 -1.48710748e-02  3.78418416e-02 -8.12267233e-03
 -1.23461755e-02 -3.28558795e-02  2.71770377e-02 -6.24010488e-02
 -4.44875062e-02  8.32991004e-02  4.03543841e-03 -5.48082404e-02
 -7.56413909e-04 -4.91249636e-02 -3.26845981e-02 -2.16289796e-03
 -7.83988982e-02  8.58435233e-04 -4.00665961e-02 -5.48189916e-02
  5.64256858e-04 -5.40582724e-02 -4.39497940e-02 -4.22890931e-02
 -1.99189615e-02 -1.18708732e-02  1.30511271e-02 -5.95832197e-03
 -1.04076572e-01  8.33377838e-02  2.44369358e-02 -2.02753972e-02
 -9.34697781e-03 -6.06411807e-02  1.66954063e-02 -2.75733564e-02
 -6.96760491e-02 -2.65488010e-02 -1.05028702e-02 -6.61717867e-03
 -1.24391122e-02  4.75887209e-02 -3.67725156e-02 -2.96245832e-02
 -3.33716441e-03  6.22168742e-02 -4.61282767e-02 -2.51004603e-02
 -3.31298523e-02  3.27996500e-02 -3.74487857e-03 -6.29156753e-02
  7.16497377e-03 -3.99339944e-03 -2.11540274e-02  7.72609049e-03
 -1.69910453e-02 -2.96432581e-02  1.11223394e-02  5.17928507e-03
 -2.88379937e-02 -4.72376794e-02 -3.37669030e-02 -4.25098576e-02
 -5.53902648e-02 -3.04056183e-02 -4.60523255e-02  3.87163856e-03
 -9.76580977e-02 -4.57724892e-02 -8.88976548e-03 -3.18998173e-02
 -7.27729052e-02  1.10032288e-02  2.93094246e-03 -3.58382352e-02
  3.58122624e-02 -2.07087975e-02 -8.56508166e-02 -4.15760837e-02
 -6.66682608e-03 -3.60603705e-02 -5.73483817e-02 -4.63365167e-02
 -2.94810142e-02 -3.47006209e-02 -3.86506901e-03 -1.87108573e-02
 -1.31834615e-02 -1.02605708e-01  4.81250649e-03 -2.50234716e-02
 -4.72049564e-02  3.74956019e-02 -5.20712845e-02 -9.27043110e-02
 -4.31465916e-02 -4.41992888e-03 -4.53313775e-02 -9.58238319e-02
 -2.09105085e-03 -5.18587679e-02 -1.64661072e-02 -1.04491830e-01
 -4.35680673e-02  1.79325789e-02 -1.38920522e-03 -1.77511629e-02
 -1.94966961e-02 -4.55930121e-02 -1.43706948e-01 -3.24862599e-02
 -6.42687455e-02 -3.78746204e-02 -6.05468899e-02 -1.23286657e-02
  1.05612343e-02 -1.44603932e-02 -2.46403404e-02  2.45440602e-02
 -6.40538558e-02  3.19450535e-02  3.00536421e-03 -4.86634932e-02
 -2.23677680e-01 -2.68111713e-02 -9.07994341e-03 -4.75059524e-02
 -5.86605743e-02  6.88767992e-03 -3.01518124e-02  4.18642983e-02
  2.48305816e-02  8.19890574e-02 -2.96653784e-03  2.27916939e-03
 -3.01433429e-02  1.11948652e-02 -3.13720815e-02  5.21719754e-02
 -5.12567498e-02 -1.10222418e-02 -1.67388488e-02  9.36443359e-03
 -2.46943999e-03 -7.28694573e-02  2.65091914e-03 -6.07139580e-02
  1.12866033e-02 -1.84703786e-02 -4.25970145e-02 -4.73520756e-02
 -9.50861548e-04 -3.78839374e-02 -3.36036831e-02  8.36362224e-03
 -2.92837881e-02  3.38777989e-01  1.54522276e-02 -1.08370660e-02
  5.74225839e-03 -5.30283377e-02  1.51161151e-03  4.15331591e-03
 -1.79176554e-02 -1.52429203e-02 -4.74987999e-02 -5.06047346e-02
 -4.01435532e-02  5.86845100e-01 -6.48066252e-02 -3.17590870e-02
 -4.82677519e-02  3.21434662e-02 -5.42035513e-02  7.63941510e-03
 -2.71409359e-02 -7.91921988e-02 -3.33761275e-02 -1.55297713e-02
 -4.11782339e-02 -1.16661396e-02 -4.87467274e-02 -2.94019817e-03
 -7.99785554e-02 -6.13462292e-02 -4.73239124e-02  2.74742208e-02
 -2.23838091e-02 -5.31629734e-02 -3.68836559e-02 -2.37287022e-03
 -6.11261614e-02 -6.60579950e-02 -2.86493991e-02 -4.37978879e-02
  1.00625694e-01 -4.42508683e-02 -3.54096703e-02  2.15385035e-02
 -3.06228623e-02  3.49756181e-02 -4.97855805e-02 -8.46551284e-02
 -5.62530607e-02  1.66844286e-03 -2.09446214e-02 -2.50288341e-02
 -4.50831018e-02  2.23481432e-02 -3.65204811e-02 -7.38668591e-02
 -5.31470813e-02 -3.21751349e-02 -2.87909787e-02 -7.78393000e-02
 -8.40556156e-03 -3.48653737e-03 -1.63412858e-02  2.13589631e-02
 -2.82243323e-02 -3.76312435e-02 -5.37329279e-02 -3.50126252e-02
 -4.19703461e-02 -7.20401257e-02  1.55348182e-02 -3.16122361e-02
 -5.95106371e-02 -9.24280495e-04 -1.70226637e-02 -6.11781217e-02
 -7.21166506e-02 -2.81020370e-03 -5.59378751e-02  1.46206776e-02
  1.63345877e-02 -3.77302542e-02  7.64219975e-03 -2.04052348e-02
 -3.42737734e-02  1.41430302e-02  2.21194644e-02 -5.66762611e-02
 -2.02226453e-02  1.24107897e-02  2.34850924e-02 -5.83766103e-02
 -4.78231311e-02 -3.23387720e-02 -3.43626440e-02  1.50753800e-02
 -1.65301599e-02  1.19494833e-02  1.20074004e-02 -5.78210987e-02
 -3.21301110e-02 -7.58584030e-03 -9.91442520e-03 -6.58349842e-02
 -6.76173642e-02 -1.22128977e-02 -3.21052521e-02 -6.91234544e-02
 -5.37060611e-02 -2.63706483e-02 -7.83565417e-02  5.39384186e-02
 -2.61292253e-02  1.30383512e-02  1.51765170e-02 -5.28638847e-02
 -5.08406609e-02 -2.30673626e-02  2.34380458e-03 -2.53544506e-02
 -5.85464947e-02 -6.22053519e-02 -1.82635467e-02  2.98583992e-02
  1.20447075e-03 -8.65375847e-02  4.10302013e-01 -5.05501106e-02
 -5.42492978e-02  1.58243831e-02 -1.17765456e-01 -2.38109846e-03
 -1.92713540e-03  2.56622788e-02 -3.62137407e-02 -5.67275696e-02
  3.40685435e-02 -3.75484745e-03 -7.14003816e-02 -2.04142500e-02
 -1.00162350e-01 -8.33264086e-03 -1.04190454e-01 -4.09227237e-02
  2.02401401e-03 -7.39684030e-02  1.77134946e-02 -3.83210965e-02
  4.29673493e-02  4.93311556e-03  1.14830192e-02  1.66274849e-02
 -4.54489142e-02 -3.04230750e-02  6.36569411e-03 -6.22172430e-02
  4.00844291e-02 -3.29518653e-02 -9.00180545e-03  1.13094142e-02
 -1.51644256e-02 -8.43501762e-02 -7.85594061e-02 -6.49682879e-02
 -3.32555585e-02 -1.74497794e-02 -2.25506239e-02 -9.35003534e-03
 -6.24734499e-02 -7.58009255e-02 -2.19765175e-02 -2.35342197e-02
 -2.59756781e-02 -3.91399600e-02  1.75636150e-02 -5.82517758e-02
  9.16235819e-02 -6.54017478e-02 -2.86905859e-02 -1.10654563e-01
  1.06674591e-02  5.47016487e-02 -5.35898209e-02 -7.02653127e-03
  1.90217271e-02 -1.30406674e-02 -6.87056631e-02 -9.52637754e-03
 -1.81585818e-03 -4.70581427e-02  1.15153138e-02 -2.53024250e-02
 -1.21792583e-02 -5.01980036e-02 -3.06949895e-02 -3.57061960e-02
 -1.53850159e-02  5.28140403e-02 -4.83354554e-02 -4.40542307e-03
  4.23612036e-02 -4.02034298e-02 -9.48374718e-03 -4.67209816e-02
  2.61250027e-02 -9.75020789e-03 -5.17395250e-02 -4.32960019e-02
 -5.32091036e-02  1.81954224e-02  4.33692299e-02 -6.86111376e-02
  2.62939464e-02 -4.66287136e-02 -4.56268080e-02  2.37316638e-02
 -3.88923027e-02 -2.19658092e-02 -4.93884236e-02 -1.43072335e-02
  1.15179620e-03 -1.07911989e-01 -3.07462178e-02 -2.53457967e-02
 -4.83754762e-02 -9.44582745e-03  7.35601643e-03 -7.72470981e-02
  4.62953374e-02 -2.29558200e-02  1.34701980e-02 -4.80200574e-02
 -3.16934101e-02 -4.76383418e-02 -3.37351114e-02 -4.73609907e-05
 -4.90915067e-02 -3.11964937e-02  2.16892716e-02  2.90134382e-02]
bert/encoder/layer_0/attention/self/query/kernel:0
(768, 768)
[[-0.0185282  -0.03370578  0.01240896 ... -0.0075459  -0.02061605
   0.00390667]
 [ 0.02733728  0.03476375  0.03216734 ...  0.05115385  0.09462051
  -0.09657835]
 [-0.02531188 -0.04111218  0.01049697 ...  0.05596393  0.06131244
   0.01098159]
 ...
 [ 0.01544794 -0.05396282 -0.02744339 ...  0.02683492 -0.10599466
  -0.02039894]
 [ 0.07656013  0.14080156  0.02514039 ...  0.05339941  0.06216784
  -0.0496143 ]
 [ 0.05461446  0.00830637 -0.04718911 ... -0.05466906  0.04829286
  -0.00769456]]
bert/encoder/layer_0/attention/self/query/bias:0
(768,)
[ 5.83721220e-01 -3.32860380e-01 -4.27063376e-01  3.76406103e-01
 -2.99936801e-01  4.09010112e-01  1.52962469e-02  2.90915489e-01
  2.32177317e-01 -1.29686877e-01  1.33457124e-01  4.52439994e-01
 -9.79802385e-02  1.10016629e-01  4.30180013e-01  5.63079417e-01
  3.30776349e-02 -4.39246073e-02 -3.14475685e-01 -1.19844876e-01
  7.82474875e-03  8.40072706e-03  4.72264504e-03  4.70676601e-01
 -2.59393826e-02 -6.39553219e-02 -6.96715713e-02  5.89524388e-01
 -4.21398014e-01 -3.22729000e-03  3.20121199e-01 -2.23173052e-02
 -1.39936328e-01 -2.36198857e-01  6.06169626e-02 -8.02573338e-02
 -7.04276711e-02 -1.24269500e-01  5.41246891e-01 -8.12601522e-02
 -2.50202686e-01 -4.07591313e-01 -3.71903628e-01 -1.38371706e-01
 -7.17236221e-01 -4.66139555e-01 -1.31122425e-01 -3.62124383e-01
  2.90757492e-02  2.08347589e-01  4.26260710e-01 -5.33134397e-03
  6.70421004e-01 -1.76688910e-01  2.98493028e-01 -2.92288184e-01
  4.11020517e-01  8.13344941e-02 -1.78235814e-01 -2.73926735e-01
  6.46432757e-01  6.11619204e-02 -3.32613051e-01  1.72971100e-01
  6.44157233e-04 -3.16052198e-01  8.26505944e-02 -2.11724751e-02
  2.17533633e-01  1.73648864e-01 -2.64132053e-01 -4.09042090e-01
  8.08390379e-02  1.93142816e-01 -4.83802445e-02 -1.26105383e-01
 -1.96229503e-01 -6.42418414e-02  1.59543157e-01 -1.39781132e-01
  6.30314276e-02 -2.70789772e-01 -5.99691458e-02  2.29530528e-01
 -2.79689252e-01  1.91743731e-01  2.30337203e-01  2.62992263e-01
 -8.59955400e-02  2.26102948e-01  3.51838946e-01 -2.36472979e-01
 -1.56181678e-01 -2.23725349e-01  1.39743119e-01  1.42440066e-01
 -8.15938786e-02  3.75449937e-03 -1.82832897e-01  1.51165456e-01
  4.23303135e-02 -6.01303987e-02  2.78730422e-01  1.79521933e-01
  7.77754486e-01 -2.42702082e-01 -2.47101590e-01  1.45146787e-01
  5.38651599e-03 -1.11475021e-01  9.69898328e-03  2.84859389e-01
  1.78421736e-01  7.61536211e-02  1.13922037e-01 -6.69345498e-01
  1.16035879e-01  7.59650618e-02 -8.92074630e-02 -2.50437647e-01
  1.49514973e-01 -7.02122152e-02 -8.71744901e-02 -1.18869908e-01
 -1.70619264e-01  7.60895461e-02 -2.13613719e-01  1.99242681e-01
  1.94770485e-01  8.04213345e-01 -5.34622192e-01 -1.24775767e-02
 -8.95105395e-03  1.06659934e-01 -7.70241469e-02  2.35413268e-01
 -1.53627262e-01 -5.28110564e-02 -2.04973236e-01 -2.29985327e-01
  1.86091602e-01 -5.52529469e-02  2.49573231e-01 -7.92421699e-01
 -9.44661647e-02  2.62030084e-02  1.93403393e-01 -4.99903820e-02
 -8.03624913e-02 -3.06662589e-01  2.24620983e-01  8.49380255e-01
  2.38913611e-01  2.27249593e-01 -5.28839290e-01  2.81077564e-01
  2.51992732e-01  8.25747475e-02 -1.54179469e-01  6.76255822e-01
  5.67063391e-01 -5.20752847e-01  3.96010697e-01  2.60592401e-01
 -5.96101642e-01  4.16347355e-01 -7.50203291e-03 -6.96953773e-01
 -2.10313976e-01 -4.52488028e-02 -4.66173142e-01 -6.82214141e-01
  1.44299567e-01  3.46297920e-01 -1.76069394e-01 -7.28523359e-02
 -6.89628184e-01 -2.44759083e-01 -1.24696538e-01  8.41711819e-01
 -4.97958362e-01  5.70823729e-01  4.47788656e-01  6.32772893e-02
  3.05176228e-01 -9.50226188e-02 -6.47593021e-01 -1.84948236e-01
  5.73006451e-01 -1.14132904e-01 -4.91460830e-01 -2.94229537e-01
 -8.05165112e-01  1.07604034e-01  1.63892090e-01 -1.56006008e-01
  9.92200673e-02 -1.88329387e-02  4.86333817e-01 -8.42253640e-02
  3.57113779e-02  7.21709654e-02  8.77021253e-02  5.98824382e-01
 -8.73434171e-02 -2.95205504e-01  1.04622334e-01 -1.61131248e-01
  1.18384592e-01  1.45171404e-01  4.85843927e-01  2.41232826e-03
  2.29584336e-01 -4.31764364e-01 -2.72322118e-01 -5.31359613e-01
 -5.56417465e-01 -6.04681037e-02  7.92776108e-01 -5.72180152e-02
 -9.27828997e-02  3.28374505e-01 -1.05249262e+00  1.35222897e-01
  1.76481996e-02 -8.86857361e-02  1.53452158e-01 -9.36636403e-02
  9.98560563e-02  6.32366717e-01  6.57623708e-01  6.21979050e-02
 -1.45408154e-01 -3.52947980e-01 -2.21447080e-01 -1.99688569e-01
 -1.88303456e-01  2.99925148e-01  2.34758724e-02  6.56629279e-02
 -4.26665813e-01  7.08634555e-02 -1.30029678e-01  8.51779804e-02
 -1.05959654e-01 -8.13579485e-02  7.40132015e-03  4.33598273e-02
  1.21223353e-01  2.45317057e-01 -6.92000031e-01 -9.70386621e-03
 -2.97725927e-02  1.24000587e-01 -1.12410776e-01 -1.57735914e-01
 -1.65050760e-01  3.34258154e-02 -2.32665986e-01 -4.62160353e-03
 -9.95266959e-02  3.67605329e-01  3.17837268e-01 -5.97021766e-02
  3.37189473e-02 -2.19057128e-01 -2.34058529e-01  3.43523584e-02
  2.10643291e-01  2.78750598e-01 -4.83620018e-02 -3.74020457e-01
 -1.22800045e-01  4.28442419e-01 -3.13478783e-02  2.97287703e-01
  4.16922905e-02  1.25322817e-02 -1.00612260e-01  1.44843400e-01
  3.12943488e-01  1.82870373e-01  3.70855123e-01  3.58698726e-01
 -5.01308918e-01  3.25624496e-01 -4.18080166e-02 -3.95040065e-02
 -5.39483018e-02 -2.39075482e-01  2.06548989e-01 -1.15520194e-01
  1.32690847e-01  1.37328438e-03 -3.34643602e-01  1.27315428e-02
 -4.99387234e-01  3.40003259e-02  1.14001811e-03 -1.25398234e-01
  4.37411487e-01  2.97784507e-01 -2.44031876e-01  1.90899566e-01
 -2.61922449e-01 -2.37479776e-01 -2.26680145e-01  1.68632403e-01
  6.07962571e-02 -2.28234887e-01 -1.28605708e-01  1.36515319e-01
 -2.14771464e-01  2.14057602e-02  4.61005181e-01  1.81821227e-01
 -1.40500352e-01 -1.77316323e-01  1.19406275e-01  3.46444517e-01
 -3.31301570e-01 -2.67403662e-01  3.83223772e-01 -2.32922792e-01
  2.11243346e-01 -3.05658400e-01 -1.91444114e-01  1.72980651e-01
  2.12557763e-01 -2.56788999e-01  9.60904434e-02 -1.55117884e-01
  2.63726264e-01 -2.51586884e-02  8.34860802e-02  4.50183362e-01
  3.54149193e-02 -5.89935422e-01  6.60661831e-02 -8.78667310e-02
 -1.46830054e-02  4.08121377e-01 -4.40452278e-01 -2.14490294e-01
 -2.04811737e-01 -3.20211723e-02 -4.77764666e-01  9.72696543e-02
  1.19205162e-01 -9.93489474e-03 -4.48521435e-01  2.55200062e-02
  1.88726470e-01 -3.10338497e-01 -4.00098294e-01 -3.22261542e-01
 -6.20173216e-01  3.98411661e-01  1.57625213e-01  8.38479958e-03
 -3.86226147e-01  2.06728950e-01 -1.07007697e-02 -3.37742805e-01
  4.64314789e-01  1.38000816e-01  1.82299167e-01  3.85734677e-01
  3.16514596e-02 -1.09009176e-01 -2.38111958e-01  1.78945720e-01
  2.34965459e-01 -1.32287532e-01 -2.65694559e-01  1.34039536e-01
 -2.97688007e-01 -3.56925905e-01 -1.12579517e-01  1.05264269e-01
  8.45363736e-03  4.13991809e-01 -1.88017711e-01  6.58195540e-02
  2.54427195e-01  2.00568005e-01  1.72007501e-01 -3.06128293e-01
 -5.35951197e-01 -9.91755649e-02 -6.18527353e-01  5.87769598e-02
 -1.09622911e-01 -3.40244889e-01 -3.39253396e-01 -3.47690344e-01
 -6.28790081e-01 -1.59582600e-01 -2.05997765e-01 -5.29366553e-01
  6.43226504e-01  1.92938760e-01  1.92145720e-01  3.15348566e-01
  7.60432035e-02  3.21031600e-01 -1.91693917e-01  1.77078485e-01
 -2.46658072e-01  4.41524446e-01  7.65787661e-02  1.87436208e-01
 -2.61219770e-01 -2.46075720e-01 -1.81522798e-02 -4.87398505e-01
  1.04556769e-01  3.18770558e-01  4.09259260e-01  9.03944820e-02
 -1.63244888e-01  6.72791481e-01 -3.20590019e-01 -2.91722119e-01
 -7.90557340e-02  2.63032675e-01 -2.38293231e-01  2.63782918e-01
 -2.35720235e-03  8.31968114e-02  8.71248394e-02  2.07030252e-02
  4.66219932e-02  4.95844483e-02 -6.46994486e-02 -1.60968024e-02
  2.46334463e-01 -1.57993793e-01  4.29619163e-01  2.93379426e-01
 -5.24216950e-01 -3.60378362e-02  1.66905522e-01  1.90516815e-01
 -4.62166548e-01 -4.07050133e-01 -1.04502641e-01  5.40257692e-01
 -9.73424241e-02 -8.33489746e-02  1.62557691e-01  1.01110809e-01
  1.82446584e-01  2.12120991e-02  3.03005159e-01  1.19877525e-01
 -3.73799689e-02 -2.52465047e-02 -9.88585688e-03 -1.35715753e-01
 -6.17653951e-02 -1.38204554e-02  6.12125881e-02 -8.31465498e-02
 -3.09981793e-01  6.91067651e-02 -2.09286530e-02  1.53057110e-02
 -1.82408527e-01  5.37258327e-01 -3.42505872e-01 -1.67416245e-01
  2.17049167e-01 -1.31791130e-01 -2.48129264e-01  1.54141486e-01
  1.36533573e-01  3.18009734e-01 -3.56606543e-01 -3.91840935e-01
  5.69040850e-02  1.74700499e-01 -4.09184098e-02 -3.47960442e-01
 -3.38547766e-01  1.20319836e-01  1.02711320e-01  7.70017952e-02
  1.88974291e-01 -2.86656469e-02 -1.41783044e-01 -2.38578450e-02
  3.43103915e-01 -1.57756433e-02 -6.38363138e-02 -1.28202945e-01
  1.18852928e-01 -9.38684642e-02  1.82302848e-01 -1.28249407e-01
  1.64953724e-01  3.52762818e-01 -3.49624187e-01 -1.02898583e-01
  1.13258166e-02 -7.14834183e-02 -1.75969321e-02 -2.75181919e-01
 -2.97086351e-02 -8.13700631e-02  1.68952703e-01  7.65777156e-02
 -3.86435390e-02  2.37942353e-01  7.44227469e-02  3.24817806e-01
 -9.46669579e-02 -1.28140360e-01 -1.46556139e-01  7.89229013e-03
  1.25512347e-01  4.60916907e-02  1.69228718e-01  1.56478569e-01
 -7.44667128e-02  9.57449228e-02 -1.21848285e-01  4.26444948e-01
  1.25884905e-01  5.88926435e-01 -9.37796533e-02 -1.80649474e-01
  1.99330702e-01 -1.66538000e-01 -1.27042457e-01  5.96277341e-02
 -4.12083119e-01 -4.07045722e-01 -2.26856485e-01 -1.22740112e-01
 -3.05824112e-02  2.96118528e-01 -2.50025719e-01  4.92661029e-01
 -9.06094760e-02 -1.59047507e-02  1.84500188e-01  1.73761889e-01
  1.05369635e-01  1.32122457e-01 -1.60592884e-01 -9.11250487e-02
 -1.00934599e-02  1.87501311e-01 -1.45830765e-01  2.12594599e-01
  8.14312324e-02 -1.42632678e-01 -5.68724908e-02 -2.78531194e-01
 -3.63500744e-01  1.98803589e-01 -7.47950226e-02  5.36191225e-01
  2.26657882e-01  3.78153741e-01 -2.04017788e-01 -3.29646915e-01
 -1.90121964e-01 -2.37515882e-01  8.51614922e-02  1.11935072e-01
 -2.28922013e-02 -1.40959527e-02 -2.95460135e-01  7.78833330e-01
 -3.43375266e-01 -3.10822994e-01  2.90946439e-02 -9.79472622e-02
  3.58479053e-01  1.88898355e-01  8.43953788e-02  8.26633051e-02
 -1.60635635e-01 -4.56081539e-01  1.15852974e-01  2.05725282e-01
 -2.48597682e-01  2.94561237e-01 -1.95729472e-02 -2.74990350e-01
  1.42668486e-01 -1.76186800e-01 -1.54201224e-01  2.13579342e-01
  5.40026546e-01 -1.26720607e-01  3.69295180e-02 -4.53051776e-01
  6.38199151e-01  4.43447560e-01 -1.35630667e-01  2.43949056e-01
 -2.16100380e-01  8.95489845e-03  5.73669672e-01  4.26803902e-03
 -1.83921456e-02  8.63890871e-02  2.39201784e-01 -1.66542098e-01
 -2.13206783e-02  3.55434418e-01 -4.26866233e-01 -2.00215816e-01
  3.18902731e-01  2.20774710e-01 -3.34971994e-02 -2.30160132e-02
  4.47799385e-01 -2.97956437e-01 -3.55585247e-01  9.60510969e-02
 -1.87709272e-01 -3.95421475e-01  2.67850667e-01  2.66011715e-01
 -5.10837734e-01  1.24846943e-01  5.20082228e-02 -1.61479756e-01
  5.48786104e-01 -2.04565123e-01 -3.73158067e-01  1.71265483e-01
  4.18432325e-01  4.10274357e-01 -1.15441352e-01 -3.42336655e-01
 -2.24028811e-01  2.64035493e-01  1.80928171e-01  2.10660473e-01
  8.15822482e-01 -3.33442241e-01  2.97689945e-01  5.74212611e-01
  2.11580113e-01  2.91044384e-01  1.16040029e-01  1.19645290e-01
 -6.03094399e-01 -2.15727150e-01  9.43398997e-02 -2.88577259e-01
  5.43801308e-01  5.33476844e-02  7.53162578e-02  1.23543002e-01
 -1.16032965e-01  7.16304407e-02 -3.84125590e-01  1.22121930e-01
  8.61669540e-01 -1.02496957e-02 -4.50262837e-02  1.71586096e-01
 -1.30600601e-01  2.81248122e-01  3.66854966e-02  7.38533512e-02
  6.22586787e-01  6.83377534e-02 -5.19848131e-02  2.03144625e-01
  2.55110323e-01 -2.12468028e-01 -5.09190202e-01  4.21047240e-01
  4.46730375e-01  6.41877875e-02 -3.50342244e-01  8.77296478e-02
 -1.84518769e-01  1.09284759e-01  9.82160866e-02  6.51770651e-01
  2.18958959e-01 -3.23345333e-01  1.66504338e-01  6.84804618e-02
  1.52652618e-02  1.05814993e-01 -2.04229459e-01  1.31643340e-01
 -9.30017680e-02 -6.54532373e-01  4.28695567e-02 -2.91360673e-02
 -4.63626236e-01  4.07705337e-01 -7.61433616e-02  4.19269383e-01
  1.27792805e-01  2.43050635e-01 -7.15651363e-02 -3.24620426e-01
 -8.60165898e-03 -1.13325574e-01 -1.38706848e-01  3.83825928e-01
 -2.62629360e-01 -4.66914028e-02 -9.69199762e-02 -3.08116555e-01
  3.47862452e-01  1.93354174e-01  1.06835924e-02 -1.18288986e-01
  1.35249928e-01 -2.15333611e-01 -3.01470570e-02  3.26865107e-01
  3.32739115e-01 -7.90618286e-02  5.49553186e-02 -6.11347444e-02
 -1.59877196e-01 -3.12160015e-01  2.63084732e-02 -7.07419589e-02
  3.64958078e-01 -2.55230814e-01  2.69959778e-01 -5.07023931e-01
  8.97736028e-02  3.16229686e-02 -1.40362024e-01 -6.40781671e-02
 -2.11561799e-01 -2.60168910e-01 -3.50642413e-01  5.32209054e-02
 -1.37719512e-01  2.13395208e-01  4.75452334e-01 -4.29840125e-02
  2.37485483e-01  2.12713435e-01  2.03304529e-01  1.24095753e-01
 -1.21386163e-02 -1.49955750e-01  3.01833432e-02  1.47657931e-01
 -7.75396079e-03 -1.57489061e-01 -1.35622650e-01 -1.51505833e-02
  2.09874406e-01  5.17518520e-02  3.13972503e-01  1.70744117e-02
 -2.26319417e-01  1.84473038e-01 -1.12559468e-01 -7.72729293e-02]
bert/encoder/layer_0/attention/self/key/kernel:0
(768, 768)
[[ 0.00908074  0.02714957 -0.01756253 ...  0.01876906 -0.0528268
   0.00565305]
 [-0.03791228 -0.0643274  -0.01789414 ... -0.01834076  0.02345604
  -0.05106692]
 [ 0.01937338  0.01847732 -0.03362582 ... -0.00887716 -0.01646979
   0.02581983]
 ...
 [ 0.01372392 -0.0172129  -0.02720429 ...  0.01871142 -0.00598337
  -0.00532622]
 [-0.01461584 -0.04402585 -0.04403978 ... -0.05452482 -0.01905693
  -0.00186556]
 [-0.00936416  0.01916831 -0.00869069 ...  0.08378595 -0.06577716
  -0.00168548]]
bert/encoder/layer_0/attention/self/key/bias:0
(768,)
[ 1.04260247e-03  3.49667913e-04 -2.46440736e-03 -1.08157721e-04
 -1.19185948e-03  2.69055809e-03  2.27661128e-03  8.40714783e-04
  2.23738933e-03  8.56550876e-04  9.56559554e-04  1.40817976e-03
  6.34280383e-04 -1.66550081e-03 -3.97572527e-03  1.93049060e-03
  2.11483173e-04 -6.62108185e-03 -9.63733473e-04 -1.36426894e-03
  2.86249607e-03  3.87043576e-03 -5.13400417e-04  8.76385428e-04
  5.90628479e-04 -3.44826956e-03 -1.04764104e-03 -2.92451849e-04
 -3.74972867e-03 -1.11995116e-02 -3.03025940e-03 -9.70462279e-04
 -1.78407913e-03  1.26133126e-03  1.11995928e-03  1.17590814e-03
 -5.41679154e-04 -3.18127195e-03  2.59108702e-03  2.14761938e-04
 -3.34115583e-04 -4.92381223e-04 -1.81469973e-03 -8.63770675e-03
 -2.53383769e-03 -3.07819713e-03 -2.64497212e-04 -5.34135150e-04
  1.71645347e-03 -4.61716147e-04 -1.30070641e-03  6.02023676e-04
  9.64352512e-04 -4.48367186e-03  1.18709181e-03 -1.55048387e-03
  2.04714015e-03  2.40011513e-03  1.04316755e-03 -7.91295315e-04
 -1.93234032e-03  4.00729757e-03 -1.55108992e-03 -2.84817442e-03
 -4.15620161e-03 -2.23703589e-03  3.09729553e-03  2.30088388e-03
 -5.73889771e-03 -6.51447102e-04  1.42923510e-03  5.60601754e-03
  7.66544254e-05 -2.75912607e-04 -2.31060971e-04  7.30283465e-03
  4.95674741e-03  2.74381787e-03 -2.15524039e-03  5.18677151e-03
 -5.80499007e-04  3.08259879e-03 -1.72760244e-03 -5.96856978e-03
 -2.46394752e-03  3.66979605e-03  1.27657654e-03 -9.11586452e-03
  2.10165675e-03 -2.05604010e-03 -2.71530240e-04  1.91179104e-03
  2.16330314e-04  5.84427267e-03  4.53808665e-04 -6.48805592e-03
  1.47633674e-03  7.10196095e-04  2.97063426e-03  3.70762451e-03
  6.13598793e-04 -1.67861860e-03 -1.02797314e-03  7.63282820e-04
 -3.75437876e-03  1.37492130e-03  4.05970542e-03  1.34352548e-03
  2.07325094e-03  7.04370323e-04 -1.09751825e-03  1.56163631e-04
  1.04201594e-04  5.24229882e-03  6.28139533e-04 -7.67420686e-04
 -1.02054945e-03  2.28830148e-03  8.05933960e-05  3.39844148e-04
  3.23441636e-04 -5.01471292e-03  4.94710635e-03 -2.36389716e-03
 -3.25396820e-03 -9.06196982e-03  3.18845268e-05 -3.13798402e-04
  6.10269187e-03 -5.03847701e-03  2.24738591e-03 -3.97052988e-03
 -2.57089082e-03  3.47912754e-03 -3.33903066e-04 -1.08590117e-02
 -5.20053785e-04 -2.58974591e-03  5.96942985e-03  6.85042993e-04
  5.62987523e-03  5.77554666e-03  4.81284835e-04 -6.76893920e-04
 -3.08944844e-04  2.78559024e-03  1.50928495e-03  6.79856492e-03
  7.05151446e-03 -7.21175922e-04  1.22733170e-03 -2.08369712e-03
 -1.24519346e-02  2.18823741e-04 -2.50682561e-03 -4.83260839e-04
  7.83716678e-04  2.16367538e-04 -2.39297701e-03  1.80220552e-04
  1.04963512e-03 -8.14934378e-04  5.08541416e-04 -5.57365129e-03
 -7.74219260e-03 -3.39674158e-03 -8.11846927e-03  4.83444892e-03
 -6.85673486e-03  3.73263401e-03  1.17240427e-03 -1.08867825e-03
 -2.40078778e-03 -5.57012483e-03  9.12631024e-03 -9.75355133e-03
  5.79087716e-03  4.11248580e-03  2.85356515e-03  1.29226048e-03
  1.96041423e-03 -2.56227073e-03 -6.67993492e-03  3.73389339e-03
  6.88070105e-03 -9.70711838e-03 -4.91309864e-03 -3.52418236e-03
 -4.06146224e-04  2.77459505e-03  3.27790901e-03 -3.24069755e-03
  1.35535107e-03  8.07068963e-03 -1.56266056e-03  4.05313069e-04
  1.05669508e-02  3.03555094e-03 -7.43621448e-03 -4.33082413e-03
  2.22415361e-03 -5.67902811e-03 -2.25941418e-03 -3.32238036e-03
 -1.88509133e-04 -3.01102526e-03 -9.92187415e-04 -3.07463785e-03
 -6.78028772e-03 -5.11200167e-03  5.19476598e-03  3.98550136e-03
  5.74840326e-03  5.30721445e-04 -3.35428398e-03  2.59905285e-03
 -1.06915813e-02  1.71963812e-03 -6.54395903e-03 -3.53973312e-03
 -6.75675506e-03  1.98703236e-03 -2.51975446e-03 -2.81654391e-03
 -2.18288857e-03  7.88963109e-04  1.91683450e-03  4.90244990e-03
 -3.96686280e-03 -5.07177843e-04 -4.25724639e-03 -7.18445377e-03
 -6.98865298e-03 -1.34560149e-04 -9.15153651e-04 -1.34478742e-03
 -3.55601846e-03  3.59182642e-03 -1.15441310e-03 -3.34034022e-03
 -2.05211388e-03 -5.32169780e-03 -1.23658765e-03 -1.43811456e-03
 -2.41407106e-04 -1.55124837e-03 -1.81260565e-03  5.51401544e-03
 -8.79632775e-03  8.29585548e-03 -7.68842455e-03 -5.69363590e-03
 -5.86457970e-03 -9.18020145e-04 -5.88620454e-03  3.66895052e-04
  3.22561129e-04 -8.49101809e-04 -4.04981780e-04  6.45678141e-04
  9.11642623e-04 -7.27775798e-04 -1.69904495e-03  1.43384922e-03
 -5.07368590e-04  1.33044890e-03 -2.02877331e-03  1.16519292e-03
 -1.79895968e-03 -1.38879288e-03 -1.01593928e-03  2.34644744e-03
 -2.35667903e-04  3.28338152e-04 -1.67473976e-03 -1.12987997e-03
 -2.44290568e-05 -1.51524018e-03  1.44246349e-03 -8.09715304e-04
  2.11712369e-03 -2.04650662e-03 -3.36300302e-03 -1.24095345e-03
  9.08317816e-06 -1.08773250e-03  1.29463675e-04  1.18147791e-03
  6.98916556e-04 -8.05721676e-04 -2.15775450e-03  3.58319073e-03
  7.74527667e-04  7.39461626e-04  1.74073037e-03 -1.87141856e-03
  2.16461529e-04 -2.57549633e-04 -5.32271166e-04 -2.06592167e-03
 -3.98509670e-03  3.14977660e-04 -1.37413468e-03  5.84829773e-04
  3.03782732e-03 -1.22499478e-05  4.06020030e-04  6.30896713e-04
 -3.19107622e-03  2.03265552e-03  6.17096026e-04 -3.53220268e-03
  5.06253098e-04  1.62914302e-03 -2.43079499e-03 -3.41970415e-04
  7.17217103e-04  4.56373236e-04 -4.04898252e-04 -3.65926768e-03
 -8.35758168e-04  6.18259772e-04 -1.20711012e-03 -4.44412744e-03
  4.59974958e-03 -6.60891004e-04 -7.52736814e-04 -2.23194319e-03
 -2.87012989e-03 -7.67382502e-04 -8.31954554e-03 -9.16211866e-04
 -1.25829608e-03  1.70367188e-03  1.73538912e-03  3.19907977e-03
  2.61983019e-03 -3.85711249e-03  1.33749680e-04 -4.35473630e-03
  8.32010468e-04  1.69853028e-03  4.56316164e-03 -1.24746538e-03
  1.91918516e-03 -2.32405611e-04 -6.07673172e-03 -3.31198657e-03
 -3.99457850e-03 -1.82088558e-03 -8.08371260e-05 -3.70690512e-04
  4.10252629e-04 -2.31927400e-03  1.70764304e-03  1.63673388e-03
 -4.17624367e-03  1.65001221e-03  2.32244260e-03 -1.35632453e-03
  1.82040152e-03  8.30837598e-06 -4.95120366e-05 -3.68642458e-03
  3.48028075e-03  3.33758024e-03 -2.24683597e-03  1.34875358e-03
 -2.41463585e-03 -5.41675556e-03  1.05550792e-03  3.73845152e-03
  6.67976914e-04 -2.13062461e-03  1.12979684e-03 -1.95790292e-03
 -9.92255955e-05  5.46559598e-03 -5.62584959e-04  4.03257692e-03
  1.68983673e-03  8.78691557e-04  5.14317211e-03 -1.79249502e-03
  6.38282800e-04  4.37013386e-03  1.21649622e-03  6.29916147e-04
 -6.97074225e-04  2.82809348e-03  1.35519705e-03 -1.48515566e-04
  4.80536371e-04  2.95855035e-03 -3.65954969e-04  3.13782971e-03
  2.02707155e-03  6.58807403e-04 -3.45767767e-04  2.22174753e-03
  2.10594060e-03 -3.65026528e-04  1.15020212e-03  4.38994379e-04
 -4.51507093e-03  1.03315944e-03  2.68117944e-03 -1.54353154e-03
  4.38559109e-05 -3.07315786e-04 -7.89947051e-04  1.96269015e-03
  2.55752006e-04  1.09463872e-03 -3.22795124e-04  1.30772038e-04
  1.50552508e-03 -3.35726794e-03  9.82473721e-04 -5.21746057e-04
  1.37674890e-03 -4.74441377e-03 -5.51518926e-04 -6.42096333e-04
  3.06960341e-04  1.30511331e-03 -4.54867783e-04 -2.20075762e-03
  7.62968266e-04  5.15231768e-05  4.73767315e-04 -2.98109371e-03
  4.03000478e-04  2.43252399e-03  3.79725534e-04 -1.28361210e-03
 -7.13680522e-04 -3.21666338e-03 -1.62319199e-03  8.46437120e-04
  1.30607630e-03 -3.54377116e-04 -1.57791830e-03 -1.73550006e-03
  8.59847176e-04  9.12555319e-04 -7.07817322e-04 -6.31938572e-04
 -1.07497768e-03 -9.74797294e-05  2.63246329e-04  2.36136955e-03
 -4.26434632e-03 -2.24367087e-03 -1.12680602e-03  8.20828951e-04
 -7.74704735e-04  1.93779403e-03 -1.70941348e-03  1.04823266e-03
  1.37502153e-03  5.12532773e-04  1.97166810e-03 -1.60291721e-03
  6.39497594e-04  4.64284443e-04  2.09254096e-03  1.91489104e-04
  1.57369673e-03 -1.67531101e-03  1.20815507e-03 -2.18880805e-03
  1.97505997e-03 -2.29719770e-03  1.18704617e-03 -1.40029693e-03
 -2.40240028e-04  1.14121311e-03 -6.80731027e-04  2.56837509e-03
 -6.46546832e-04 -2.39082309e-03 -2.32924940e-03 -1.21631916e-03
  2.05297372e-03 -1.29521219e-03  1.77751773e-03 -7.71120773e-04
 -4.11802996e-03  1.58672105e-03 -4.70581785e-04 -6.16915291e-04
  6.50389818e-04 -1.42986036e-03 -2.35198182e-03 -3.14636296e-03
 -1.60951249e-03  2.26519024e-03  8.77947314e-05 -7.57530564e-04
  2.33714655e-03 -1.54286076e-03  2.24820641e-03  1.19350990e-03
 -5.73892728e-04  1.79521425e-03  5.84830996e-04  2.88309436e-03
  1.88288465e-03 -2.33498416e-04  6.14631281e-04 -1.69013906e-03
 -1.57009426e-03  1.82047125e-03  1.48213454e-04  2.03269254e-03
  6.53322833e-03 -1.19908794e-03 -1.32477737e-03  3.46154231e-03
 -3.59606859e-03  3.00144125e-03  2.15818151e-03  4.54740552e-03
  2.56416947e-03  8.37626212e-05 -2.43892102e-03 -3.56160832e-04
  3.63718159e-03  1.43591024e-03 -2.15468695e-03 -4.36667306e-03
  2.47821887e-03 -2.55016377e-03  9.37534554e-04 -2.96837068e-03
 -1.13108486e-04 -3.22897639e-03 -6.39286079e-03 -7.87124620e-04
  1.49203208e-03  1.93197886e-03  1.73689600e-03  5.53200440e-03
  2.61150487e-03 -5.61261433e-04 -7.15615414e-03 -3.30590783e-03
 -3.22334049e-03 -2.67432048e-03 -8.11536913e-04 -3.51276645e-03
 -1.55271337e-04  3.67346266e-03  3.80637095e-04 -1.49460370e-03
  1.70282647e-03 -1.50051224e-03 -5.11965342e-03 -3.45410872e-03
 -3.81444441e-03  3.92862922e-03 -4.89235914e-04  2.33329134e-03
 -2.27099605e-04 -3.76166427e-03 -2.30068737e-03  2.57675303e-04
 -1.83126843e-03 -2.94472586e-04  1.88800204e-03 -6.21977204e-04
  2.08028802e-03 -6.29230519e-04 -2.77023902e-03  5.41307917e-03
 -5.88948326e-03 -3.77930398e-03 -1.27973256e-03 -1.95844192e-03
  5.92497597e-03  3.88315390e-03  1.90373522e-03  6.53408642e-04
  1.35225142e-04 -3.73882474e-03 -2.97044823e-03 -3.29007301e-03
  1.63794449e-03 -5.56633240e-05  1.54206518e-03 -6.11031847e-03
 -1.09022995e-03  2.79738125e-03 -2.76193954e-03  2.31860508e-03
  7.52451946e-04 -1.81732280e-03 -1.08412106e-03 -2.94873235e-03
  1.70644268e-03  2.42049247e-03  1.10789691e-03  4.18712059e-03
 -4.07823082e-03 -2.97696656e-03 -7.44376594e-05 -2.09515356e-03
  3.18508595e-03 -2.86974758e-03  1.63014058e-03 -1.89810048e-03
 -4.60465904e-03 -1.35288131e-03  2.72309291e-04 -3.04509350e-03
  5.03369840e-04  2.11430551e-03  1.42945303e-03  1.51949201e-03
 -2.10260088e-03 -3.83935170e-03 -2.66312645e-03  2.43232003e-03
  2.09395774e-03 -4.33796085e-03  4.27693874e-03  1.01076008e-03
 -1.95515458e-03  1.31578697e-03  2.12612678e-03 -3.46177048e-03
 -8.92590469e-06 -3.64990882e-03 -7.53334432e-04  4.17410396e-03
  2.65046983e-04  1.75777043e-03 -3.29992594e-03 -3.34423734e-03
 -5.62617742e-03  8.19973834e-03  3.17210634e-03  7.87422876e-04
 -4.13164869e-03 -1.97065459e-03 -9.18284000e-04  4.17883694e-03
 -6.75423536e-03  1.35860220e-03 -5.11168782e-03 -1.84163707e-03
 -2.94054649e-03 -3.40341171e-03 -2.13998323e-03  7.97207875e-04
 -2.14153784e-04  4.41910746e-03  9.03386592e-07  4.77401121e-03
  5.99934021e-03  3.70997493e-03 -5.81588363e-03 -1.48369733e-03
  4.70623467e-03  3.10968538e-03  7.54994433e-03 -2.27846234e-04
 -3.21928528e-03  4.21997858e-03  2.86057708e-03  2.29455275e-03
 -5.54926554e-03  3.34081380e-03  1.92323187e-03  4.09288565e-03
  4.77089593e-03  2.26883544e-03 -3.99293797e-03 -1.39338232e-03
  3.06623429e-03 -1.97208370e-03 -3.15169198e-03  3.79233016e-03
  1.26330506e-05 -2.98495544e-03 -5.75391343e-03 -1.03315536e-03
 -3.43999197e-03 -5.89766027e-03 -2.17936304e-03  4.57904115e-03
  2.83053378e-03  5.80888474e-03 -1.64968637e-03  1.43628928e-03
  8.15053098e-03 -2.72267917e-03 -1.71898492e-03  6.07671961e-03
 -7.42420321e-03  4.85016871e-03  3.12462752e-03  3.52006289e-03
  3.50214890e-03 -2.67914659e-03  1.10565990e-04 -4.75380104e-03
 -1.93810975e-03 -2.17169197e-03  5.43208793e-03  3.09683941e-03
 -4.16841311e-03 -2.82642688e-03  3.77643085e-03  2.25633569e-03
 -1.78088294e-03 -4.83559258e-03 -3.54867964e-03 -7.50197703e-03
  4.02252004e-03 -4.54626651e-03  2.80222949e-03 -3.04490025e-03
  1.32670195e-03  2.99135083e-03 -2.38215132e-03 -2.56102066e-03
  4.79512243e-03 -6.39740517e-03  7.92075787e-03  1.69674400e-04
 -4.72138776e-03  2.78301188e-03 -1.17436249e-03 -1.06889894e-03
 -2.21843598e-04 -8.80199834e-04 -4.20748442e-03 -3.08519928e-03
  2.15017842e-03  1.55823189e-03 -1.03502953e-03 -1.05698698e-03
  1.55942608e-03  1.11917278e-03  1.03599194e-03 -5.83747867e-03
 -5.79504808e-03 -2.53289938e-03 -1.75314886e-03 -4.77839820e-03
 -1.07317034e-03  2.78302381e-04 -1.92956056e-03  4.84533870e-04
 -3.27641191e-03 -4.47827112e-03 -3.02215572e-03 -7.97757355e-04
 -7.20346859e-03 -1.17019250e-03 -5.23156719e-04 -1.77543698e-04
  3.68640991e-03 -5.58509072e-03  5.73119801e-03  2.92281597e-03]
bert/encoder/layer_0/attention/self/value/kernel:0
(768, 768)
[[ 0.01031865 -0.02606504  0.01938661 ... -0.02977469 -0.00324541
   0.00033778]
 [ 0.00148022 -0.01190498 -0.02239241 ... -0.01953905  0.04037328
  -0.02511161]
 [-0.01085505 -0.04336097  0.03053503 ...  0.02950545  0.04506756
   0.00369814]
 ...
 [ 0.02392758  0.05568426  0.00724652 ... -0.04019032  0.02392378
  -0.05011535]
 [-0.0253954  -0.01226908 -0.03458066 ... -0.05244389  0.01341901
  -0.05955996]
 [ 0.00028528 -0.02660147 -0.02289169 ... -0.00689443 -0.01016752
  -0.03459857]]
bert/encoder/layer_0/attention/self/value/bias:0
(768,)
[-1.17386365e-02 -1.72561128e-02 -3.32415267e-03  1.71885062e-02
  4.50888276e-03  1.10770324e-02 -2.81548873e-02  1.23061836e-02
  1.11688105e-02  8.48913472e-03 -2.10676976e-02  4.00766395e-02
 -4.57503367e-03 -6.34368230e-03  9.02253389e-03 -3.44166555e-03
  2.36803368e-02  3.52074578e-03 -9.63883940e-03  1.73883159e-02
 -3.91444787e-02  9.26380418e-03 -1.90354586e-02  1.81442723e-02
  3.05532874e-03  3.82820889e-03 -3.37298564e-03  2.30998974e-02
  1.05952881e-02 -1.35282765e-03 -1.57018229e-02 -9.00992565e-03
  8.17624852e-03  1.90994442e-02 -3.82074038e-04  8.60321522e-03
  2.46509667e-02 -1.94394880e-03  1.76414959e-02 -2.50523648e-04
 -9.52023175e-03  6.62078522e-03 -2.43504029e-02 -9.74576920e-03
  5.47374412e-03 -5.55635476e-03  3.06520914e-03  1.82056334e-02
 -1.73041280e-02 -8.34146887e-03  1.14148809e-02 -1.26795173e-02
  5.88188588e-04 -9.13967565e-03  1.25321914e-02  8.39407463e-03
  7.81038310e-03 -3.55716818e-03  7.62145780e-03  1.14452010e-02
 -1.00787822e-02 -4.16818960e-03  1.39770126e-02 -4.90616402e-03
 -7.25143263e-03  1.74629726e-02  1.68372113e-02 -4.23492156e-02
  2.48347465e-02 -9.88698099e-03  2.47670989e-02  2.78901625e-02
  2.59725004e-02  3.42366397e-02  1.58973467e-02 -5.57458028e-03
  7.29390129e-04  3.28233242e-02  2.35955603e-02 -2.29378100e-02
  4.88309190e-02 -1.76874064e-02 -5.42421872e-03  1.64149087e-02
  2.23155729e-02  2.25627446e-03 -2.76624225e-03 -5.91087118e-02
 -1.63108949e-03 -5.95861021e-03  5.29403649e-02 -9.53478273e-03
  6.34159222e-02 -2.11709589e-02  3.75312977e-02  8.96113273e-03
 -2.78478721e-03 -1.17342416e-02  4.85972613e-02  3.55363712e-02
  1.00664478e-02  3.96884345e-02  4.04081084e-02  4.01410088e-02
  1.70855410e-02  7.03504775e-04 -2.47436296e-03  9.78236319e-04
 -2.01912168e-02 -8.79929774e-03 -5.41968942e-02  5.67878503e-03
  2.93994658e-02  2.38668621e-02  2.21604463e-02 -8.01384170e-03
  8.10222887e-03  4.70383503e-02 -1.30138351e-02 -2.96453182e-02
  2.49378197e-02  4.02032621e-02  5.34984507e-02 -2.79285014e-02
 -1.83765795e-02 -5.66676725e-03 -2.96451896e-02  1.91937387e-03
 -1.08624520e-02  3.00163887e-02  4.58482429e-02  4.36446220e-02
  2.21785693e-03 -1.22094778e-02 -4.33582924e-02 -2.22327299e-02
  6.17730804e-02 -9.05674770e-02  4.82495911e-02 -4.69288342e-02
 -4.36834060e-03 -7.65649742e-03  7.15728998e-02  9.70312506e-02
  1.33951604e-02  4.58613373e-02  1.06433006e-02 -2.76506189e-02
 -2.49764714e-02  1.92365926e-02  1.92358922e-02 -9.46413949e-02
 -1.09800734e-01  2.99904477e-02 -3.01232766e-02  7.69884745e-03
  5.90099115e-03  1.35776624e-02  4.68371212e-02  1.17466711e-02
  4.36139032e-02 -3.56285758e-02 -2.30324827e-02  2.30459291e-02
 -6.37627789e-04 -6.79874644e-02 -1.29833957e-02  5.51813701e-03
 -2.07174197e-02  1.10804904e-02  1.39792738e-02  8.33398756e-03
  6.81413710e-02  6.32418767e-02 -1.45713147e-02 -6.56880513e-02
  3.71780172e-02 -3.35489996e-02 -2.60000750e-02 -1.02333263e-01
  1.89389149e-03 -6.76690489e-02 -4.88534383e-02  3.78488675e-02
  3.59966827e-04 -1.54682584e-02 -3.97710465e-02  2.59907544e-02
  4.49622869e-02 -5.73607045e-04 -2.54768711e-02 -6.18988015e-02
  1.20233208e-01 -1.71890303e-01  8.05995092e-02  8.55708122e-02
  7.73430616e-02  3.09843551e-02  1.78329200e-02  1.26134872e-01
 -4.07328755e-02 -1.21680405e-02  1.13597125e-01 -2.84314994e-03
  3.55593041e-02  4.55977023e-02 -7.24844411e-02 -9.81553365e-03
  1.22311853e-01 -6.19353279e-02 -3.60484142e-03  5.00685088e-02
  1.08909190e-01  1.30657256e-01 -1.02007598e-01  2.49815988e-04
  5.65845743e-02 -1.67949185e-01  1.40778944e-01 -5.37919700e-02
 -2.12566517e-02  1.98784918e-02 -9.60592255e-02  1.04815535e-01
  6.84725717e-02  3.21062319e-02 -4.99652363e-02 -7.25707337e-02
  1.80138964e-02  6.38572499e-03  7.62975365e-02  1.79948080e-02
  5.78861795e-02 -1.13766998e-01 -1.56437531e-02  2.67173089e-02
  1.17166802e-01  1.45427227e-01 -1.25089526e-01 -6.78944290e-02
 -3.45526338e-02  5.78382835e-02 -5.74379452e-02 -5.38557619e-02
  1.20190293e-01 -8.98414850e-02  5.28736562e-02 -8.82878304e-02
 -3.52842622e-02 -6.57897145e-02  1.53243886e-02 -8.00775960e-02
 -1.78376436e-01  2.07509361e-02 -1.00485906e-01 -8.98367688e-02
  3.51839252e-02 -1.18128571e-03 -2.74599588e-04  3.59503403e-02
 -2.61472091e-02  1.14288274e-02  1.83400027e-02 -2.07780749e-02
  1.63104609e-02 -2.78055426e-02 -8.69206041e-02  1.04787432e-01
 -2.09226403e-02  3.28501756e-03  2.29965784e-02  1.63401687e-03
 -2.50362349e-03 -2.25296505e-02  2.20551323e-02 -8.45042430e-03
 -4.72385250e-02  3.07751279e-02 -2.05941871e-02 -2.66983323e-02
 -1.54395932e-02  3.51998881e-02  1.05288392e-02 -6.75223628e-03
 -1.75239332e-02  2.25283485e-02  1.43869370e-02 -3.94764170e-03
 -2.84674056e-02 -3.12543800e-03 -1.37091652e-02 -1.36253973e-02
 -7.65170297e-03  2.54930984e-02  3.76385897e-02 -9.80893988e-03
 -1.96729545e-02 -1.51920272e-02 -2.09605918e-04 -1.20756906e-02
  2.38201246e-02  8.68271440e-02 -1.36559799e-01  5.43109607e-03
 -1.28832646e-03 -4.75016609e-02  2.34189257e-03 -1.05892774e-02
  5.26938168e-03 -8.38591997e-03 -2.95688100e-02 -4.28639958e-03
  1.20083068e-03  1.03558758e-02 -1.40667306e-02 -2.12484924e-03
 -1.50344204e-02 -2.84421747e-03 -3.34278727e-03  4.74372786e-03
  2.99659930e-02 -2.53616124e-02 -1.22414646e-03 -3.64813209e-02
  1.37005821e-02 -2.08545923e-02 -2.46798489e-02 -7.64045306e-03
  4.27976437e-03 -1.46895880e-02  2.38385182e-02 -4.29342426e-02
 -2.51446497e-02 -1.66087169e-02  1.36067150e-02  4.55353921e-03
 -4.90602851e-03 -1.72758382e-02 -1.09828515e-02  1.28870560e-02
  2.38983380e-03 -7.41309347e-03 -2.27951594e-02  2.04078038e-03
  4.32510022e-03 -3.12428568e-02 -3.92099507e-02  8.84197932e-03
  1.57795269e-02 -4.77376161e-03 -8.19708128e-03 -4.02526231e-04
  1.34820044e-02  1.07854418e-02  1.31320497e-02  2.86066849e-02
  6.90133404e-03 -9.80517454e-03  1.46486107e-02  5.10276295e-03
  3.99783812e-02  2.64133196e-02 -1.25548961e-02  2.94649173e-02
  1.26685272e-03 -3.12484782e-02 -1.86806042e-02  1.28645096e-02
  1.26231890e-02 -5.09892590e-03 -1.15053691e-02  2.22897418e-02
  1.07341437e-02 -1.35060027e-02 -4.39325161e-02  1.28310907e-03
  9.83550027e-03 -3.33960354e-02 -8.40791129e-03  3.77992378e-03
 -3.80405691e-03  2.99057774e-02  4.04181005e-03 -1.82125792e-02
 -1.67055207e-03 -2.16449192e-03  1.04261218e-02 -3.72427492e-03
  4.45361761e-03  9.72075667e-03  1.04984920e-02 -2.05866732e-02
  3.01412074e-04 -1.78264175e-02  4.22119768e-03 -2.15488244e-02
  1.90150235e-02 -1.35920057e-02  2.83006672e-02  2.24312244e-04
 -1.19401151e-02 -7.65560952e-04 -4.73209098e-03  5.24078170e-03
  1.54923610e-02  1.53749099e-03  4.54648538e-03  1.61525626e-02
 -1.21251019e-02  3.65470629e-03  4.97177504e-02 -9.57072433e-03
  8.54655984e-04 -1.16376802e-02  3.27814044e-03  1.17909967e-03
 -2.38985941e-03  1.02746524e-02 -2.44675693e-03 -1.10930651e-02
 -9.41619929e-03  7.66434222e-02  1.23942681e-02 -3.16649396e-03
 -6.14295248e-03 -8.26782268e-03 -1.89344138e-02 -5.19158803e-02
  1.07815284e-02  9.10625269e-04 -1.35040144e-02 -2.24868068e-03
 -6.21437095e-03 -7.58180511e-04  6.75294641e-03 -2.06701574e-03
  3.61284870e-03  3.33193981e-04 -7.60866627e-02  2.59217480e-03
  6.80524018e-03 -8.68246611e-03  1.42687903e-04  9.85698309e-03
  1.25877820e-02 -6.84064580e-03 -1.02574574e-02 -1.37793822e-02
  2.18401924e-02  3.86943854e-03  1.81369483e-02 -1.38341403e-02
 -2.83158477e-03  2.07596812e-02 -1.15615129e-02  2.78768712e-04
  2.17188476e-03  2.78831515e-02  1.53475441e-02  1.56003693e-02
  1.74046364e-02 -8.34210031e-03  1.70834530e-02 -1.36093106e-02
 -3.31488368e-03 -1.32331410e-02  9.23526809e-02  7.30358902e-03
 -6.98235817e-04 -4.83169593e-03 -2.78592948e-03 -4.73638577e-03
  1.60779841e-02  9.88680637e-04 -1.39655502e-04 -1.48974359e-03
 -1.28944432e-02 -6.47882698e-03  4.42904420e-03 -1.49632432e-02
 -5.27631864e-02 -2.44006934e-03  1.18287336e-02 -6.97367266e-03
  6.94090873e-03  1.97729934e-03 -9.03456286e-03  2.90172640e-03
  1.40335821e-02 -3.93266976e-02  2.04795928e-04 -1.19434600e-03
  3.95104364e-02  3.68954577e-02  3.59150991e-02 -2.08612736e-02
  1.38591882e-02  1.19047193e-02  8.63353815e-03  2.06077490e-02
 -3.09235067e-03  1.60093382e-02 -1.63399447e-02 -1.64490175e-02
  1.01575973e-02  4.99478367e-04  3.57323978e-03  3.99998203e-03
  1.25525717e-03 -4.18913551e-03 -2.00008508e-02 -1.42562557e-02
 -1.40159801e-02  2.85370518e-02  5.07952832e-02  2.79580131e-02
  4.48021702e-02 -1.51290447e-02  2.83494219e-03  2.51929648e-02
  2.65429653e-02  3.28531046e-03  3.35609764e-02 -4.41063903e-02
  2.86718644e-03  6.17222395e-03 -2.16207895e-02  1.46797346e-02
 -1.65158063e-02  9.97983967e-04 -2.52740737e-02  1.87125094e-02
  3.09061892e-02  5.55532426e-02  6.85284808e-02 -3.04567311e-02
 -1.24723082e-02  1.55565068e-02  8.95849243e-03 -6.34315982e-02
 -3.73965390e-02  2.17391644e-02 -3.26481573e-02 -4.15645260e-03
 -3.10979653e-02  3.16530168e-02 -3.35575268e-02 -4.00733687e-02
  6.39304938e-03 -3.08357980e-02  2.00613867e-03  2.86717154e-02
 -2.46106498e-02 -7.77242333e-03  2.67480616e-03  2.35973019e-03
 -2.03235317e-02 -1.54776797e-02  4.60505998e-03 -2.75859926e-02
 -1.30118197e-02 -2.52043512e-02  2.32240167e-02  4.96838801e-03
 -4.91652498e-03  1.69326030e-02 -5.16532846e-02 -5.91739081e-03
  2.50942279e-02 -6.60351943e-03  1.03643835e-02  2.68900278e-03
  4.35303189e-02  1.94744170e-02  5.76186888e-02 -3.99008719e-03
 -2.81218789e-03  8.58873129e-03  1.90949731e-03  1.84031613e-02
  1.28015568e-02  9.82417539e-03  2.46529956e-03 -1.56687312e-02
  2.91291568e-02  1.89064555e-02 -4.47276654e-03  3.11511592e-03
  6.42783567e-02  7.38089625e-03  1.80330705e-02  3.31265014e-03
  2.78638881e-02 -1.03213582e-02  2.63797864e-02  1.64286438e-02
  1.52978664e-02  5.97583037e-03 -1.30074462e-02  1.04183750e-02
  3.55781168e-02 -9.61592142e-03  3.37472372e-02  3.89972865e-03
 -1.34778218e-02  2.28453908e-04  3.78226042e-02 -1.89245883e-02
 -5.41913137e-03  3.57094104e-05 -2.31834836e-02 -3.97013277e-02
 -2.58950260e-03  2.19512451e-03  3.24308090e-02  6.07358897e-03
  6.35288749e-03 -5.14134823e-04 -9.67048481e-03 -9.62943397e-03
 -2.83090677e-02 -1.83066055e-02  5.52110337e-02 -3.16250101e-02
  2.30561998e-02 -7.87577871e-03  1.29641918e-02  2.16862913e-02
  9.01963562e-02  1.08100455e-02 -4.48112236e-03  1.33843785e-02
  2.11319644e-02  3.52062169e-03 -2.16482449e-02 -4.39443253e-02
 -7.29657244e-03  9.14914440e-03  4.64961352e-03 -4.74423133e-02
 -1.00556789e-02  1.57702237e-01 -6.29781857e-02  3.39369625e-02
  9.82093588e-02 -7.81259611e-02 -4.41777660e-03  4.00335044e-02
  7.36438185e-02 -1.23189017e-02  1.96128357e-02 -1.20231241e-01
  8.50248113e-02 -1.08324178e-01 -4.34261225e-02 -3.04261455e-03
 -1.55066652e-02 -5.02626300e-02  9.77668613e-02  1.03094140e-02
 -1.62718564e-01 -1.40106548e-02 -1.83046237e-02  1.21504560e-01
  5.72069436e-02  3.99936177e-02 -6.45835102e-02  9.87159237e-02
  3.38069461e-02 -1.72654018e-01 -5.62353432e-02  6.59571886e-02
  1.94360374e-03 -5.68230674e-02  5.30063324e-02  2.30672676e-02
 -7.86617398e-02  1.03079788e-01  2.50540614e-01  3.93053181e-02
 -5.81550188e-02  1.11461900e-01  8.95347819e-02 -5.36758527e-02
  9.15711671e-02 -2.34155282e-02 -3.63152139e-02  6.87662959e-02
  4.86208051e-02 -4.75743115e-02 -1.13621838e-01 -1.00206435e-01
 -5.37722930e-02  1.34039879e-01 -1.86176486e-02  2.89309565e-02
 -2.65492778e-02 -1.11510813e-01 -4.38156421e-04  2.40821578e-02
  8.62111598e-02 -5.51187843e-02 -6.91215172e-02  6.37824461e-02
  1.50033617e-02  2.06370535e-03  9.20067634e-03 -2.13667322e-02
 -1.04426173e-02  6.09689625e-03  1.31182168e-02 -6.40046271e-03
 -1.56335831e-02  7.26541132e-03  7.89720193e-03  1.19491378e-02
 -7.75531225e-04  2.56553125e-02  9.39540192e-03  1.42164016e-02
 -1.02392035e-02  1.34806279e-02  6.87040901e-03 -1.86170135e-02
 -3.62376729e-03 -3.76290013e-03 -1.62959024e-02  1.27392514e-02
  9.54736862e-03 -1.81281660e-02  2.78322957e-02 -1.78670362e-02
  2.05143471e-03  1.71520431e-02  2.18503941e-02  1.63325889e-03
 -3.52079049e-03 -1.34348162e-02 -6.00680243e-04 -3.79446079e-03
 -7.98342098e-03 -7.29721179e-03 -5.63372811e-03 -6.66775135e-03
 -3.45207527e-02  1.93665605e-02  2.48579495e-03  8.98330752e-03
 -4.28785197e-03  2.71867383e-02  2.04827394e-02 -2.22481638e-02
  3.86518729e-03  9.67317168e-03  1.29326917e-02  2.06723753e-02
  3.20965517e-03  2.00572540e-03  1.23129282e-02  6.25350978e-03
 -1.29145673e-02  2.59321388e-02  4.37142048e-03 -2.10560975e-03
  1.70238200e-03 -2.15711817e-02 -7.69247441e-03 -2.41510174e-03]
bert/encoder/layer_0/attention/output/dense/kernel:0
(768, 768)
[[ 0.00544227  0.03165328 -0.06109732 ...  0.04876505 -0.00901619
  -0.05212388]
 [-0.00308335  0.00821762 -0.03402977 ... -0.00651276 -0.02466299
   0.0194794 ]
 [ 0.00463426 -0.01488878  0.02078968 ...  0.05117445 -0.05414498
  -0.01537612]
 ...
 [-0.00838694 -0.01515894  0.01380683 ... -0.01264789  0.04654606
   0.03223738]
 [-0.02782874  0.02034181  0.00385761 ... -0.00163475 -0.01158764
  -0.01353359]
 [ 0.03715491 -0.01218752 -0.01095249 ... -0.01243239 -0.04067581
  -0.00330177]]
bert/encoder/layer_0/attention/output/dense/bias:0
(768,)
[ 5.73538803e-03 -1.60573274e-02  2.81882230e-02 -1.18359011e-02
  1.89984441e-02 -4.41001095e-02 -1.62764024e-02  7.73683470e-03
 -1.39376381e-02  1.19768688e-02  2.68830694e-02  5.30290194e-02
  5.11892103e-02 -3.12303659e-02 -1.78373773e-02  3.14550065e-02
  3.03733591e-02 -1.10353502e-02 -2.29023350e-03 -2.16216873e-03
  5.45933377e-04  1.83405597e-02 -1.67819820e-02  1.75494999e-02
  3.43345967e-03  5.27981156e-03 -4.62136883e-03  2.44442523e-02
  1.35420850e-02  5.38935773e-02  1.76277645e-02  2.94097140e-02
  1.31673748e-02  8.45084805e-03 -5.81863010e-03  2.12771185e-02
 -5.07453978e-02  2.08951719e-02 -6.22256950e-04 -9.36329365e-03
 -3.96936201e-02 -2.28765439e-02  3.85857970e-02  3.18697654e-02
 -7.31690368e-03  4.01480086e-02 -6.14574703e-04 -2.68951897e-02
  2.49966122e-02 -3.00345980e-02  1.75826680e-02  1.49277477e-02
 -7.26544298e-04  1.29488762e-02  5.26893735e-02 -2.18961276e-02
  8.19416158e-03 -1.11904498e-02 -1.45608922e-02  2.03900244e-02
  6.08346658e-03  3.29507142e-02 -4.16378006e-02 -3.56219821e-02
 -4.05127481e-02 -1.80062559e-02  8.52198398e-04 -1.49771040e-02
 -2.61660926e-02  4.36104648e-02  2.43842490e-02 -8.46766122e-03
  4.18694876e-03  7.36779766e-04 -1.15061561e-02 -2.93452526e-03
 -2.71562953e-03 -1.35943890e-01  3.04822121e-02 -1.15400711e-02
  2.98751909e-02  5.85051961e-02  4.39820997e-03  2.46816613e-02
  3.72601748e-02 -4.66688350e-02  3.15502323e-02 -4.06885520e-02
 -9.12294816e-03 -3.91023718e-02 -2.99132820e-02 -2.95945201e-02
  5.87427169e-02  2.07855813e-02  3.23714800e-02  4.97708730e-02
 -7.03915954e-02  6.18955083e-02  2.68395580e-02  1.79393229e-03
 -2.33502025e-04  3.79194925e-03 -4.17706706e-02  6.48304028e-03
 -9.35563724e-03 -1.40020534e-01  2.18764599e-03 -6.46790713e-02
  3.59511934e-02 -1.88923702e-02  2.91405283e-02  2.55171191e-02
 -9.71565139e-04  1.74815431e-02  4.60611768e-02  1.38885556e-02
  1.76742964e-03  1.49154970e-02  2.65731104e-02 -2.84854304e-02
 -2.27156673e-02 -1.40410706e-01  1.85511522e-02  2.41173748e-02
  4.95634377e-02  4.84324439e-04 -6.13020360e-02  4.17546108e-02
  3.76022607e-02  6.00098856e-02 -3.55462171e-02 -1.05490005e-02
 -3.18047926e-02 -1.13661336e-02 -1.36194332e-02 -2.49855313e-02
 -4.96270955e-02 -4.69966605e-02  3.07270493e-02 -6.62113577e-02
 -1.10384645e-02 -6.62303250e-03 -2.02110503e-02  3.01984753e-02
 -1.51112746e-03 -1.88596278e-01 -2.87166722e-02  5.41003933e-03
 -4.29505631e-02  4.31656502e-02 -2.33761617e-03  4.53676023e-02
  1.71122104e-02  1.08811976e-02 -6.64492045e-03 -3.49511839e-02
  1.64341088e-02 -8.13070592e-03  4.43535447e-02  1.30094036e-01
 -6.43693656e-03  9.03578708e-04  4.02195528e-02 -1.63920298e-02
  3.08589507e-02  2.31435355e-02 -3.52065638e-02 -9.81056225e-03
  1.02326542e-01  2.64709275e-02 -1.94831355e-03 -2.86394507e-02
  4.43922263e-03 -7.04845600e-03  6.97375415e-03  1.48741618e-01
 -4.03242297e-02  2.13062763e-02  7.49829225e-03  4.65167463e-02
 -2.94386642e-03 -1.98530890e-02 -2.06936151e-03  8.86624400e-03
 -2.26750560e-02  2.07711775e-02  2.67950688e-02  1.80689767e-02
 -3.44670261e-03  6.31464738e-03 -2.06252597e-02  4.49726917e-02
  4.40098159e-02  1.50792766e-02 -5.97460568e-02 -1.63168903e-03
 -2.68142093e-02 -1.78615190e-02 -2.09568571e-02  3.57007161e-02
  3.10849585e-02  2.74813417e-02 -6.81189746e-02  9.42485221e-03
  3.54437195e-02 -1.61131360e-02 -2.18588337e-02 -4.38766321e-03
  3.90402460e-03 -2.00761557e-02  1.17949294e-02  2.83524599e-02
 -3.90360691e-02 -8.78089014e-03 -3.09479050e-02 -8.34941491e-02
 -1.08248807e-01  3.79167963e-03 -8.47338885e-02 -1.81880984e-02
 -4.73039299e-02 -1.71505497e-03 -3.99992056e-03 -3.15396488e-02
  1.70777142e-02 -1.27283201e-01 -5.02569191e-02 -3.86799909e-02
 -1.65610164e-02 -2.95626204e-02  2.30711815e-03 -1.32106288e-05
  3.93555723e-02 -2.38215365e-03  3.33233625e-02  1.75197218e-02
 -2.11868845e-02 -3.66524048e-02  1.44829974e-02 -1.77790672e-02
 -1.86828710e-03  3.63574699e-02 -3.45325191e-03 -1.25325061e-02
 -2.63783503e-02 -1.25687808e-01 -2.00836025e-02  4.67782281e-02
 -3.82388011e-03 -1.45831862e-02 -1.01807723e-02  3.77294533e-02
  1.48884216e-02  3.07966564e-02  1.82158686e-02  4.93012704e-02
 -2.07562037e-02  2.51800753e-02  4.26150076e-02  2.11227126e-02
  1.19365063e-02  4.43532318e-02  2.93879006e-02  3.44286226e-02
 -4.85469513e-02  1.31942825e-02  5.45300916e-03  4.77050915e-02
 -5.33043891e-02  2.63507422e-02 -5.98528944e-02  2.32441518e-02
  1.83833484e-02  2.27951854e-02  7.62744481e-03  3.32978088e-03
 -3.95948403e-02 -2.93192118e-02  4.16691834e-03  1.91153008e-02
 -4.20788117e-02  3.96478083e-03 -2.31152214e-02 -6.77172169e-02
  9.01243091e-03  5.61299035e-03  3.14748436e-02 -2.24115942e-02
 -5.92199266e-02  1.68088451e-02 -1.11962424e-03 -1.45853590e-02
  4.41195117e-03 -9.75187775e-03  3.25262807e-02 -5.55118658e-02
 -4.54362705e-02  2.63489652e-02  1.37658734e-02 -4.71515581e-03
 -1.10516530e-02  2.21498474e-03  2.27709953e-02  7.32445857e-03
 -2.77450494e-02  1.12385312e-02 -6.03507683e-02 -4.81433561e-03
 -3.08649361e-01 -8.80975556e-03 -1.24986582e-02  3.88882570e-02
  5.24033047e-03 -1.01004057e-02 -3.06619816e-02  4.13544588e-02
  8.67681857e-03  1.79256778e-02 -1.40930982e-02 -2.43223961e-02
  1.31901829e-02 -6.09411718e-03  1.36375315e-02 -1.15420977e-02
  1.24088563e-02 -2.02121921e-02 -3.05326423e-03 -9.99783166e-03
 -3.48746702e-02  5.38531085e-03  2.29449961e-02 -6.72556683e-02
  6.24778755e-02 -2.78451853e-02  1.00833159e-02 -2.51465105e-02
 -2.77073793e-02  2.63294484e-02  2.54127327e-02 -3.24819260e-03
 -7.90729374e-03 -2.44757794e-02 -3.36399004e-02 -1.90127026e-02
  1.78182088e-02 -3.92793678e-02 -2.27419045e-02 -1.12136863e-02
  3.68815870e-03 -2.90504731e-02  1.87079143e-02  4.45916317e-03
  8.17496050e-03 -4.27624583e-02 -2.20781267e-02 -4.94574644e-02
  3.67572019e-03 -1.46826152e-02 -6.77105552e-03  4.36671032e-03
 -3.55741903e-02 -9.91227012e-03 -3.58395129e-02  1.79546662e-02
 -1.92089342e-02 -1.58902053e-02 -1.65260769e-02 -1.04200598e-02
  3.08399112e-03  9.14210901e-02 -3.38851921e-02 -1.26826046e-02
 -1.27981566e-02 -6.88970962e-04 -3.03679127e-02 -1.30650681e-02
 -1.32551333e-02 -1.89745927e-03  5.86956777e-02 -3.03234532e-03
 -4.67539113e-03 -2.80188769e-02  2.33186241e-02  6.59577409e-03
 -5.92518412e-03 -1.18122129e-02  4.07594768e-03 -1.19377896e-02
 -3.98198441e-02  1.14620337e-02  1.76332034e-02 -1.86440442e-02
  2.49621850e-02 -1.71988867e-02  4.88923583e-03 -3.58850323e-02
 -2.22961903e-02  1.72514580e-02  2.79037263e-02 -2.12514568e-02
  2.65056249e-02  9.91307721e-02  2.35789921e-02 -1.92501955e-02
 -2.03390531e-02 -5.75191574e-03  1.56267937e-02 -1.60811599e-02
 -1.45046767e-02 -9.23088228e-04  6.05893172e-02  1.27358092e-02
 -2.30507497e-02  5.94670549e-02 -9.21554398e-03 -5.57274185e-02
  1.36005236e-02  6.77400306e-02  5.85212791e-03  5.41128702e-02
 -5.42710396e-03  1.55546714e-03 -8.02554283e-03  7.67864753e-03
  2.10557394e-02  1.91414598e-02  3.12046800e-02 -2.71089617e-02
 -2.30020881e-02  3.14956494e-02  4.04776633e-02  1.07794311e-02
 -3.58882137e-02  8.05667788e-03  1.21795395e-02 -2.45701876e-02
  3.42486310e-03 -6.97597861e-02  1.68940518e-02 -4.50909361e-02
  4.19126600e-02 -2.38532536e-02  5.28739952e-03 -6.55725449e-02
  1.04513336e-02  1.17529631e-02 -3.10164616e-02  4.95071057e-03
  2.82424968e-02 -1.29948575e-02 -4.77618277e-02  2.17878111e-02
  1.65754987e-04 -5.01588546e-03 -2.76331790e-02 -3.17850127e-03
  3.39885778e-03  3.25975800e-03 -4.48704362e-02 -1.98497698e-02
  4.57036048e-02 -6.12100735e-02 -9.77114867e-03  2.86438428e-02
  1.22055132e-02  2.87551731e-02  5.18392818e-03 -2.24411488e-02
 -8.54533538e-02  5.14747873e-02 -9.50174499e-03  6.26105641e-04
 -3.46825793e-02 -1.72976069e-02 -3.02173523e-03  4.32789922e-02
 -6.85741976e-02 -3.10360789e-02  2.61187162e-02 -1.23186046e-02
  8.60450137e-03 -4.33040559e-02  5.80232665e-02 -2.32989397e-02
  2.73889937e-02  1.25032440e-02 -1.93242840e-02  9.01450310e-03
  4.82723117e-03 -3.31466645e-02 -1.71448532e-02 -1.23599367e-02
 -5.32335639e-02 -1.94425918e-02 -2.00306717e-02 -1.87958367e-02
 -3.87308858e-02 -1.12153012e-02  1.06078954e-02 -1.55662531e-02
  3.10284831e-03  1.08777806e-02  1.92322880e-02  4.55814600e-02
  6.23013265e-02 -7.08474079e-03  4.20853421e-02  5.60613582e-03
 -1.51268393e-02 -1.25790704e-02 -5.46879955e-02 -5.19382581e-03
 -1.40301103e-03  2.34146900e-02  3.10481479e-03  2.81144790e-02
 -2.07700338e-02 -3.80918719e-02  2.15873737e-02 -3.05513339e-03
  1.98827125e-02  2.83072740e-02  1.75107047e-02  1.86515786e-02
 -4.24980223e-02  2.46982891e-02  2.89232680e-03  1.87513325e-02
  1.46505833e-02  5.25179207e-02 -7.07608322e-03  9.92024969e-03
 -1.66939069e-02 -3.00142970e-02  3.22016887e-02  1.15999356e-02
  2.92701321e-03  6.67441711e-02 -3.69616551e-03 -4.40651439e-02
  2.91108023e-02 -1.73088267e-01 -5.22239134e-03 -2.84581259e-02
  4.23081852e-02  5.11260517e-03  4.60377894e-03 -2.69596949e-02
  2.53152642e-02  3.38954590e-02 -1.84582751e-02  2.36218385e-02
 -6.65837433e-03 -8.06903932e-03  6.62542507e-03 -2.51680966e-02
  2.66525261e-02 -3.66865331e-03 -9.52947512e-03 -1.10188369e-02
 -6.10123156e-03 -3.07633691e-02  1.18479831e-02  2.08228733e-02
 -1.79776810e-02 -1.02120209e-02  9.96761117e-03  1.86367286e-03
 -8.10425356e-03 -5.85579453e-03  2.18372662e-02  1.39036318e-02
 -9.61719360e-03 -2.82312073e-02  4.34416458e-02 -2.48707295e-03
 -2.81918198e-02 -1.51556119e-01  2.24955101e-02  3.37843820e-02
  1.68115217e-02  4.86813625e-03  5.57174608e-02  1.01824384e-02
  1.48319714e-02  4.51606466e-03  9.75051988e-03 -2.23651342e-02
 -2.86656041e-02  7.68197421e-03  2.34730542e-02  3.63829583e-02
  1.42940478e-02  6.27747402e-02  7.84088206e-03  2.78471671e-02
  5.03513962e-03  4.16017286e-02  4.46673557e-02  1.00635691e-04
 -3.93119566e-02  1.71113238e-02 -3.15176994e-02  6.09761886e-02
  7.10621430e-03  4.28409390e-02  3.54986591e-03  3.91927361e-02
 -1.77361667e-02 -1.59757771e-02 -1.52455270e-02  1.86584815e-02
  1.25767561e-02  1.48672116e-04 -5.07105850e-02  1.95810869e-02
 -1.75862294e-02 -2.75566466e-02 -3.21805403e-02 -2.98630167e-02
  2.33922042e-02  2.15307642e-02 -2.90595763e-03  4.43008058e-02
 -3.12316716e-02  4.18553241e-02  1.11055188e-02  2.53650872e-03
  2.87345331e-02  2.38908641e-02  4.59447410e-03 -5.81945060e-03
  1.90428030e-02 -2.58314926e-02 -3.69527265e-02  5.12936637e-02
 -4.60694125e-03  2.96183433e-02 -4.88470308e-02  1.38566988e-02
 -6.21075090e-03 -1.59300379e-02  5.64500364e-03 -6.35566339e-02
  6.18105230e-04  1.64904613e-02  4.37345207e-02 -4.39978242e-02
  2.55591758e-02  1.91438776e-02  1.13064125e-02  5.31515218e-02
 -4.74832132e-02  6.38854504e-02 -1.22704983e-01 -1.90130547e-02
  3.72110382e-02  1.15897637e-02 -3.89047829e-03  1.57531183e-02
  1.23678278e-02  4.15262859e-03 -4.06237738e-03 -4.80445586e-02
  1.99915562e-02 -9.12878662e-03 -1.42958285e-02  1.27952627e-03
  1.95498150e-02  6.70027500e-03 -1.19898453e-01 -4.32388410e-02
 -2.10734047e-02 -6.79104880e-04  2.98863966e-02 -1.91048700e-02
  5.93863800e-02  3.67021635e-02 -7.73661584e-03  9.11571644e-03
 -2.70718653e-02  2.43336018e-02  4.69673946e-02  4.00495008e-02
 -1.28594236e-02  7.80466199e-02 -3.59843597e-02 -3.69864292e-02
 -1.77984182e-02  6.82119746e-03 -2.72771455e-02  7.89404847e-03
  2.77087651e-02 -1.52349332e-02 -3.28353723e-03 -7.63825420e-03
  2.72070859e-02 -6.32355688e-03  1.80396829e-02 -3.35486606e-02
  1.66744050e-02  1.22414548e-02 -2.78966920e-03  6.36915118e-02
 -3.85798551e-02  1.35293128e-02  4.02192213e-03  2.56687030e-02
 -1.04346629e-02 -2.47384119e-03  9.41172149e-03  4.92801368e-02
  9.89561807e-03 -7.47597544e-04 -4.57758224e-03  2.73046140e-02
  1.46970153e-02 -1.11088306e-02  1.29693327e-02 -2.94364011e-03
 -2.63917167e-03  1.07356636e-02  5.76931471e-03 -1.66251045e-02
  9.01104696e-03 -3.39810289e-02  6.13085600e-03  1.44213976e-04
  3.21951099e-02 -1.02385497e-02 -1.83224734e-02  2.07865909e-02
  2.02030293e-03  5.02415234e-03  5.41658700e-02 -1.94331463e-02
  2.75762659e-03  3.42893973e-02 -2.29716897e-02 -7.95726385e-03
  3.40684578e-02  2.91671548e-02  1.20322313e-02  5.15494384e-02
  4.04664455e-03 -1.00974552e-02 -5.98065294e-02  5.13015455e-03
 -2.94490531e-02 -1.65760498e-02  1.22426851e-02  1.68508366e-02
 -1.41001400e-02  1.72169730e-02 -8.65721703e-03 -1.97684485e-02
  1.85464472e-02  1.54341282e-02 -2.05996055e-02  8.30374844e-03
 -8.41817074e-03 -6.61188271e-04 -1.85225122e-02 -3.33826877e-02
 -3.48212644e-02 -3.80427167e-02  1.93437599e-02 -2.87849493e-02]
bert/encoder/layer_0/attention/output/LayerNorm/gamma:0
(768,)
[0.98253673 0.9605609  0.9659504  0.95928395 0.9818665  0.9844263
 0.96733004 0.97531325 0.9527506  0.94909495 0.94585025 0.924642
 0.96828455 1.0129099  0.9679187  0.94772375 0.9534303  0.96860045
 0.9617722  1.0120537  0.9536396  0.99969125 0.9609672  0.9600956
 0.9638173  0.943573   0.9646203  0.9729706  0.93562675 0.93443924
 0.9359559  0.9513731  0.9751345  0.9738271  0.98882014 0.9790804
 0.95412046 0.96135575 0.97958666 0.9761471  0.9534459  0.9563976
 0.9686021  0.96323323 0.94581485 0.9485952  1.0308636  0.96826774
 1.0004566  0.94231915 0.9821398  0.955721   0.9983494  1.1019859
 0.9688353  0.92506415 0.9463323  0.96563953 0.941217   0.95958644
 0.93544376 0.9387749  0.9983677  0.9983808  0.94080156 0.9732125
 0.9560121  0.97088575 0.9504518  0.9679324  0.93113166 0.93787146
 0.9792478  0.94509536 0.97601306 0.9625394  0.92386734 1.0268819
 0.9441271  0.95062244 0.95412445 0.96510506 0.9713699  0.9417659
 0.92535084 0.95186657 0.9248884  0.94998205 0.964094   0.94801056
 0.92191005 0.9381297  1.0708729  0.9353647  0.912683   0.9324837
 0.9791262  0.97914976 0.94400066 0.96487933 0.9604739  0.9760479
 0.9404582  0.9219526  0.93259597 0.924341   0.957524   0.9571773
 0.9579742  0.90671796 0.9873883  0.9509725  0.9946729  0.95386654
 0.95536417 0.9493769  0.9462923  0.9555446  0.9356011  0.933876
 0.97208923 0.9843034  0.9723997  0.93683124 0.954615   0.93880844
 0.9333537  0.93804127 0.9531244  0.9585007  0.9533794  0.94200104
 0.9985628  0.94454485 0.9476587  0.9646273  0.9651945  0.94069135
 0.96065396 1.0213724  0.9772368  0.99838585 0.96668327 0.9683353
 0.9502689  1.6269766  0.95698625 0.9491933  0.9361433  0.9481014
 0.92661476 0.95892483 0.91383415 0.9760011  0.9407611  0.9549477
 0.97432023 0.9285686  0.96425015 0.7145445  0.97183806 0.9753743
 0.9175859  0.9713646  0.9445419  0.96824515 0.94391876 0.94779104
 1.0752208  0.97944504 0.9568574  0.971682   0.95520616 0.99238855
 0.95278513 1.1042268  0.9348714  0.9437673  0.9325171  0.9750306
 0.93724257 0.96505255 0.96917796 0.9769025  0.9693933  0.94284594
 0.97756577 0.9920686  0.94002396 0.9453569  0.9641218  0.98398066
 1.0151541  0.94654214 0.979232   0.9694979  0.97373784 0.9622023
 0.96303195 0.91996545 0.9633507  0.98407173 1.0014669  0.96019447
 0.9621904  0.9383719  0.97453165 0.9265819  0.9647455  0.934478
 0.9410085  0.9427063  0.966263   0.9229488  0.9624125  0.9637867
 0.7182952  0.97366655 1.0366721  0.9477519  0.9647569  0.9844154
 0.9614813  0.94660366 0.9648643  0.84929585 0.9397587  0.9065608
 0.94862944 0.96455723 0.93952185 0.9526711  0.95802605 0.94949746
 0.95094407 0.9500422  0.9525377  0.94759077 0.94535667 0.92603916
 0.9577289  0.9503528  0.9354144  0.9476571  0.94631004 0.9175971
 0.9565246  0.9182379  0.9099196  0.875059   0.94671917 1.0179933
 0.9470288  0.9495737  0.96692055 0.9519472  0.9448236  0.95303273
 0.91968614 0.9324409  0.96326137 0.9370544  0.97391886 0.9574128
 0.9893815  0.9712165  0.9263047  0.95817333 0.93915313 0.9565936
 0.9549508  0.9448029  0.94582075 0.95619106 0.9860132  0.9404613
 0.9283835  0.96498626 0.9540824  0.9457177  0.92992103 0.95544034
 0.94949025 0.9419112  0.9718438  0.9668802  0.9447856  0.9782752
 0.94074273 0.9524738  0.977985   0.9585378  0.9588439  0.9366603
 0.9490123  0.91402406 0.877408   1.021817   0.97958285 0.94182485
 0.97433823 0.97674364 0.9555424  0.9597466  1.0564493  0.978728
 0.9311221  0.96196115 2.9978824  0.93594456 0.90836483 0.9344499
 0.93769276 0.9812696  0.985104   0.9502755  0.9628901  0.9360606
 0.9456995  0.95674676 0.9455827  0.9383623  0.92289495 0.93950075
 0.94362265 0.95209146 0.9553153  0.9415369  0.9407185  0.93238795
 0.9251205  0.8702045  0.9434904  0.9740035  0.9546775  0.95700806
 0.94359964 0.94934565 0.96954536 0.96790427 0.90706503 1.0198919
 0.95428437 0.9381016  0.95085776 1.0056746  0.94971716 0.9572295
 0.94663084 0.95903856 0.97298694 0.9695901  0.93147135 0.9767551
 0.96225566 0.97185194 0.95867735 0.93272406 0.9461018  0.9428301
 0.9663619  0.9412822  0.94994843 0.9514541  0.961734   0.9639131
 0.9435298  0.9455538  0.96265894 0.931441   0.96509296 0.98827875
 0.96470106 0.9348084  0.9645898  0.9582168  0.9394605  0.95684683
 0.93322027 0.9605971  0.9720243  1.1816776  0.95301455 0.9769841
 0.94590217 0.93688065 0.9747897  0.975025   0.9845746  0.97464424
 0.9126152  0.94519544 0.9583977  0.9434931  0.9728141  0.9726208
 0.92787796 0.9551178  0.95344293 0.95253694 0.9378909  0.95516765
 0.9293207  0.96705085 0.9370111  0.94435495 0.95471275 0.93662506
 0.9580218  0.96859753 0.97067726 0.92330176 0.9491108  0.98694605
 0.93414354 0.9392926  0.9528827  0.9530016  0.94344854 0.94748706
 0.94645685 0.930481   0.97255045 0.952456   0.94874614 0.94555223
 0.9347244  0.9715455  0.9587975  0.94882715 0.937911   0.9302678
 0.94293004 0.93658215 0.9423296  0.9591732  0.94005907 0.9506664
 0.97295076 0.9731443  0.95366454 0.969641   0.9375034  1.0164313
 0.9545721  0.9539971  0.9801717  0.9492311  0.9335171  0.92527014
 0.9356444  0.9707921  1.0115411  0.9714349  0.9563407  0.9508441
 0.9289353  0.9769661  0.9176883  0.9634177  0.9454247  0.9178011
 0.9662737  0.9594272  0.9566273  0.96869075 0.9561785  0.96372455
 0.9546634  0.9200578  0.986883   0.95549595 0.974204   0.95746136
 0.9151456  0.9534815  0.95820373 0.9533864  0.9585165  0.9463429
 0.9703488  0.96983355 0.85149765 0.92834985 0.96159786 0.9422442
 0.913336   0.96672004 0.94375503 0.95097166 0.9559328  0.9739539
 0.9445731  0.98477495 0.9965454  0.9464847  1.0746206  0.9619903
 0.97622865 0.94233114 0.94585615 0.96652406 0.9155816  0.95619327
 0.9393112  1.0059682  0.94407004 0.93727565 0.95453274 0.98320556
 0.9871469  0.9508336  0.9743535  0.93436974 0.9454082  0.9561152
 0.94691646 0.8215791  0.9650621  0.93745065 0.9480681  0.94794375
 0.9720346  0.9573391  0.9698305  0.9613757  0.9421032  0.93602115
 0.9421534  0.7564779  0.9590415  0.98388034 0.9518299  0.94761866
 0.95608413 0.95396894 0.9680632  0.95447415 0.93996507 1.0312351
 0.9436516  0.8778685  0.95529693 0.9465757  0.9513376  0.8992498
 0.9581917  0.98426133 0.9434905  0.9710309  0.954001   0.94190866
 0.95423853 0.95706373 0.95566857 0.95454985 0.9483146  0.97048527
 0.94934493 0.9592714  0.9341932  0.9558641  0.97355586 0.9775825
 0.9504463  0.9405833  0.97014487 0.9385416  0.9741578  0.96802396
 0.9334405  0.9639903  0.9535377  0.9335739  0.97016966 0.9483291
 0.9584328  0.9779125  0.9504708  0.9591695  0.9369553  0.92682457
 0.9789371  0.9402667  0.95514774 0.96010506 0.99340534 0.9892553
 0.9532579  0.9632126  0.9561409  0.97143227 0.9576675  0.94756085
 0.92677164 0.9420413  0.94602776 0.9613451  0.9547222  0.95077777
 0.9352171  0.95310616 0.9757699  0.95403033 0.9829545  0.950775
 0.99205726 0.9470078  0.96686256 0.9558243  0.9679004  0.9483058
 0.94731253 0.9464846  0.85042584 0.9497237  0.9323203  0.9522984
 0.9820604  0.93960595 0.9460525  0.96577406 0.9486133  0.9390298
 0.9657291  0.9350279  0.9418048  0.96610963 0.9327758  0.95481646
 0.9337224  0.9407275  0.93579817 0.9361304  0.95324415 0.94994473
 0.9762638  0.94475186 0.9463943  0.95496863 0.9765549  0.95624346
 0.9432527  0.9097344  0.94997245 0.9440749  0.963707   0.93344367
 0.9558054  0.95799553 0.9631481  0.94873214 0.925501   0.9536489
 1.0732702  0.92424864 0.9207949  0.9610891  0.9710562  0.9437353
 0.9472132  0.9640774  0.95026    0.9502152  0.95231956 0.9340804
 0.96845144 0.9718713  0.9475726  0.9353557  0.98944086 0.9693765
 0.9559872  0.940018   0.9324636  0.93895584 0.9715313  0.97538066
 0.95503026 0.9844836  0.9709922  0.9466607  0.9853472  0.95891935
 0.96280545 0.9637198  0.94235057 0.969463   0.99676394 0.96541166
 0.9385113  0.9780766  0.9455612  0.95830303 0.94098693 0.97277266
 0.9280213  0.9272044  0.9403199  0.7910248  1.0036815  0.9635689
 0.9509271  0.96864897 0.976647   0.9205948  0.99161583 0.9442992
 0.9549279  0.96816874 0.90846753 0.96528786 0.9816111  0.95768857
 0.95695394 0.9630824  0.9601105  0.9382102  0.947947   0.93721044
 0.96092474 0.9710363  0.94714075 0.9306574  0.94489574 0.9499734
 0.9575046  0.97571844 0.95542455 0.9318192  0.97269726 0.98483783
 0.9426646  1.0481006  0.9843117  0.92466545 0.9762789  0.95623475
 0.9857227  0.93232363 0.9340777  0.95498824 0.97471446 0.9401397
 0.93262583 0.9415703  0.94293815 0.93657357 0.96051735 0.96313715
 0.9576807  0.9886586  0.9399643  0.99270445 0.9455446  0.9329724
 1.0522479  0.980469   0.9236851  0.93662953 0.9597389  0.9263889
 0.9432988  0.9591623  0.95891297 0.9438814  0.942906   0.98397213]
bert/encoder/layer_0/attention/output/LayerNorm/beta:0
(768,)
[ 2.58568466e-01 -3.04234922e-02 -2.76810378e-01 -3.88515025e-01
  3.68141860e-01 -4.65298384e-01  5.18923342e-01  1.94506198e-01
  8.65734741e-03  1.73404429e-03  5.67912981e-02  2.41385385e-01
 -5.16292751e-01  6.19697809e-01  1.40891835e-01 -1.69130310e-01
 -4.21275735e-01 -4.17714894e-01  9.14329216e-02  6.07803822e-01
  3.03099245e-01 -5.04958630e-01  3.53223801e-01  2.81566590e-01
 -3.79276156e-01  2.63406307e-01  3.49225491e-01 -2.24855229e-01
 -2.30665937e-01  4.88277636e-02 -1.37167230e-01 -1.33841857e-02
  3.77701074e-01 -2.35846773e-01  1.20453313e-01 -2.42494315e-01
 -1.68289006e-01  1.05407558e-01  2.15480953e-01 -4.54427093e-01
 -1.24695055e-01 -3.54064643e-01 -9.29116681e-02  1.42333165e-01
 -8.48062187e-02 -1.61324143e-01 -2.24207833e-01 -2.18831524e-01
  1.88757703e-01  1.43933231e-02 -4.22691822e-01  1.58310398e-01
  5.70558608e-01 -1.07251227e+00  2.03272611e-01 -2.70469189e-01
  3.59304138e-02 -4.58881557e-01  1.21649578e-02 -2.79662132e-01
 -6.80163205e-02  1.26590624e-01 -7.55505443e-01 -5.70900500e-01
 -2.16533110e-01 -7.80179426e-02  7.99612105e-02  2.95230448e-02
  6.08488210e-02 -1.98485970e-01  1.02054097e-01  3.86183411e-02
 -5.87148249e-01 -2.87403405e-01  1.61545008e-01  3.23233157e-01
  1.13055557e-01  1.01422727e-01  7.93169886e-02 -9.52117741e-02
  4.24998254e-02  1.51025606e-02  1.47693589e-01 -3.22251432e-02
  2.35329270e-01  1.44040585e-01 -2.03876406e-01  5.09706065e-02
  9.99298617e-02  1.10124111e-01 -1.33609492e-02 -8.51154625e-02
  8.33964646e-01  3.06070615e-02  9.89147127e-02  5.92957772e-02
  1.74396411e-01 -1.95051372e-01 -2.32335478e-02 -1.06272332e-01
 -8.50956365e-02  2.34927148e-01 -3.20460796e-02 -8.13297480e-02
  1.01704128e-01  2.12781295e-01 -4.17349070e-01 -7.38356858e-02
  3.19834590e-01 -1.02838375e-01 -8.66506845e-02  3.21899980e-01
 -7.98511147e-01 -3.88764828e-01  8.84708017e-02  9.76135731e-02
  1.46078259e-01  1.59613550e-01 -8.09588358e-02  9.21018869e-02
 -1.98530063e-01 -2.18336177e+00 -1.90555096e-01  1.15955576e-01
  7.34634995e-02 -3.50012556e-02 -9.47676972e-02  9.20626819e-02
  1.68503776e-01 -9.59660411e-02 -5.80996647e-02  3.20079446e-01
 -1.28457204e-01  1.17863871e-01 -2.00891331e-01 -3.27926785e-01
 -3.75949442e-01 -2.47489318e-01 -3.79122674e-01 -7.44635463e-01
 -9.91998836e-02  3.97567563e-02 -1.63289264e-01  1.83673844e-01
  2.09844589e-01 -2.31895494e+00 -1.33012787e-01 -2.52442837e-01
  9.86779779e-02  2.03300908e-01  1.54628143e-01  2.13325784e-01
 -1.67405874e-01  7.02438205e-02  6.49748817e-02  5.73128201e-02
  3.81487429e-01  3.21962744e-01  2.29031458e-01  4.19835120e-01
 -1.27121627e-01  1.65880263e-01  3.34467441e-02  5.64143695e-02
  9.11524668e-02  7.64687657e-02 -4.08789748e-03 -2.96677947e-01
 -1.70700490e+00 -1.35452017e-01 -1.50611680e-02  2.48663530e-01
  2.96088427e-01  5.00732899e-01  1.72645077e-01  5.18011391e-01
 -2.65345257e-02  1.74156830e-01  1.93779185e-01  4.52838466e-02
 -1.28944993e-01 -1.57080457e-01  3.39077145e-01  4.43067133e-01
  3.64059299e-01  3.98086011e-02  4.62040454e-01  5.59783757e-01
  5.83873615e-02 -2.09630765e-02 -3.10490847e-01 -4.27707642e-01
  6.00019991e-01 -2.45748669e-01 -1.99255750e-01  5.72687536e-02
 -8.58392492e-02  1.73473403e-01 -2.30249494e-01  1.26688927e-01
 -9.45957303e-02  4.69989747e-01  2.45020121e-01  3.74259889e-01
  1.90328080e-02  1.77010775e-01  4.88237977e-01 -1.26365989e-01
 -6.59778193e-02 -1.28786042e-01  5.72353713e-02 -2.27498248e-01
  2.82954246e-01  1.98875591e-01  4.13827114e-02 -4.22851115e-01
 -2.23270580e-01 -9.65157673e-02  7.29975820e-01  1.65317550e-01
  1.18463561e-01  4.14597511e-01  2.37136453e-01 -3.50363523e-01
  1.16369233e-01  1.26850680e-01 -9.90872532e-02 -1.87901720e-01
 -1.98103506e-02  9.10316706e-02  2.12027803e-01 -7.69805834e-02
  2.40096003e-01 -9.93797258e-02  1.46498129e-01  2.59286702e-01
  2.05361426e-01  1.96537703e-01  8.62095058e-02 -2.53447413e-01
 -2.69452631e-01  5.14780805e-02  3.88860479e-02  3.15640152e-01
 -1.11903343e-02  2.47224346e-01 -4.78905916e-01  3.96309718e-02
 -1.56185433e-01 -9.89009067e-02  3.15069854e-01  4.69801217e-01
 -1.03592969e-01 -4.47388962e-02  7.61685101e-03 -8.02022070e-02
 -2.91627079e-01 -2.30557710e-01  1.53966263e-01  2.11305600e-02
  2.58066773e-01 -5.32351546e-02  3.24396670e-01  1.10958278e-01
  6.12356246e-01  3.10053945e-01 -5.77925071e-02  1.48836672e-01
  6.78254589e-02  2.26012263e-02  1.22027151e-01 -7.17151389e-02
 -6.94938703e-03 -9.56471637e-02 -2.48626336e-01  1.61316946e-01
 -2.40501836e-02 -2.47012958e-01 -4.34096009e-02 -1.50952339e-01
  7.33519197e-02  1.16599753e-01  2.20064409e-02  3.59679498e-02
 -1.64804637e-01 -3.86698365e-01  1.21474406e-02  1.42927349e-01
  1.41143471e-01  7.11253509e-02  9.11694005e-05  4.27586198e-01
 -2.70352006e-01  1.21245310e-02  4.79312651e-02 -1.02703556e-01
 -3.67614955e-01  7.30027139e-01 -1.38446882e-01 -1.97521344e-01
 -1.28343413e-02 -2.56981343e-01 -4.43879468e-03  1.71905071e-01
  4.55002964e-01  2.87138939e-01  8.39232281e-02 -2.78429300e-01
 -4.20576334e+00 -2.54110098e-01  9.45150033e-02  4.24637973e-01
 -1.40960306e-01 -3.19256783e-01  2.90827930e-01 -2.00510040e-01
  7.93556497e-02 -1.08267486e-01  8.13995004e-02  1.22828618e-01
 -3.95880602e-02 -1.76614225e-02  1.07256219e-01 -3.24920081e-02
  9.51144174e-02  3.30595255e-01  1.30085811e-01 -4.04441170e-02
 -8.21232572e-02  1.41461596e-01 -1.58088043e-01 -1.30879015e-01
 -2.31386244e-01  1.89562276e-01 -6.39935583e-02  1.14240609e-01
  7.63578415e-02  8.05871934e-02 -1.43787432e-02  3.85786682e-01
 -1.42369205e-02  2.15901479e-01 -2.04827175e-01  1.90049097e-01
 -3.14445406e-01  4.15692300e-01 -4.08215895e-02 -3.63890946e-01
 -3.24239582e-01 -4.15574610e-01 -9.72869471e-02  3.08340937e-01
 -1.14019372e-01  2.89913267e-01 -1.68091491e-01 -3.78300846e-01
 -2.78960109e-01 -1.76789895e-01 -1.80294439e-01 -4.92658168e-02
  3.11952293e-01 -1.60687953e-01 -2.81884614e-02  1.60141438e-02
 -8.71190876e-02  6.03677891e-02 -4.03459668e-02 -2.52336189e-02
 -1.07263640e-01  1.91367760e-01 -3.60954762e-01 -4.71042423e-03
  1.44849569e-01  1.34173691e-01 -3.30527306e-01 -1.15690820e-01
 -5.22536449e-02 -8.58375132e-02 -8.14340338e-02 -2.57619321e-02
  2.67903879e-02 -7.57298410e-01  2.60388762e-01 -4.39919502e-01
 -7.81294480e-02 -8.41685310e-02 -2.44590864e-01  1.81467399e-01
  2.78806202e-02 -2.99420446e-01 -1.03512242e-01 -5.11661433e-02
  3.79130661e-01  2.30567023e-01  9.07151625e-02  8.67995154e-03
  7.64635811e-03 -4.32562456e-03  5.67452312e-02 -1.56845644e-01
  1.52583525e-01 -1.61260813e-01  1.12118889e-02 -1.68974862e-01
  1.80566832e-01 -2.75307804e-01  2.71782309e-01 -1.62297741e-01
  7.86329359e-02 -1.81472041e-02 -3.59957010e-01 -2.41885766e-01
  2.53385911e-03  2.29207706e-02 -1.71600163e-01 -7.48186698e-03
  1.21531069e-01  1.06383979e-01  1.49243459e-01 -7.58465454e-02
 -2.47568041e-01 -1.62492171e-01  2.27317721e-01 -2.53162026e-01
 -1.03572272e-01  1.30717024e-01  5.55738322e-02 -5.32407425e-02
 -8.26330259e-02 -2.84029484e-01  2.42959052e-01 -8.07880834e-02
 -1.13938570e-01 -6.21848404e-02  1.44005597e-01  1.76319256e-01
 -5.29044941e-02 -9.46183130e-02 -1.23111896e-01 -2.40343451e-01
  1.35748252e-01  7.85565674e-02 -2.31133476e-02 -1.01104295e+00
 -9.55903605e-02  1.60782322e-01 -4.55405951e-01  1.60907337e-03
 -9.19673443e-02 -4.23514247e-02 -1.23497009e-01  1.35839865e-01
  4.99093801e-01 -2.25609437e-01  8.72554481e-02 -3.14915888e-02
  4.56620939e-02  1.07370719e-01 -1.97123080e-01 -2.48107970e-01
  1.70746386e-01 -1.43466324e-01  6.18268922e-02  3.71711880e-01
  2.85156667e-01 -4.92725551e-01 -3.55936825e-01  2.74099827e-01
  2.57030815e-01  3.58432606e-02  1.94146931e-01 -1.77495092e-01
 -1.60698190e-01 -8.76906365e-02  1.03936143e-01  2.56214917e-01
 -3.08186024e-01 -7.13905767e-02 -1.40675530e-01 -1.15917183e-01
 -2.44715005e-01  2.13106856e-01  2.21579835e-01  4.93375920e-02
 -2.76357252e-02  1.33614019e-01 -2.37812172e-03  3.24717969e-01
 -2.59078771e-01 -1.29595697e-01 -1.20491438e-01 -3.64034802e-01
  3.12604368e-01 -2.94072181e-01 -5.54057837e-01 -2.03718498e-01
 -1.04424572e+00  1.18914634e-01 -2.14129955e-01 -6.01296797e-02
 -1.43608928e-01  9.80930030e-02  1.21159917e-02  8.67041573e-02
  1.22779459e-01 -2.25435540e-01  2.24129841e-01 -1.14662824e-02
 -2.91296154e-01  3.08906306e-02 -1.06258102e-01 -2.50103146e-01
  5.38222551e-01  2.88795005e-03 -2.83869505e-01  2.25593671e-01
 -1.54142931e-01 -1.00649782e-02 -3.51862550e-01 -7.45584443e-02
 -1.81040272e-01  2.37200499e-01  1.61488652e-01  5.92649635e-03
 -3.15341502e-01  5.54901324e-02  6.29419535e-02  3.86616737e-02
  6.38634115e-02  1.89296436e-02 -4.31912541e-02 -1.30818591e-01
  1.72178283e-01 -1.12642638e-01 -8.63481089e-02 -2.30421111e-01
 -2.70453811e-01  2.38338515e-01  1.93867669e-01 -1.32375896e-01
  3.37546527e-01 -2.04053617e+00 -1.27567708e-01  2.49643296e-01
  3.76450531e-02 -5.78516543e-01 -4.08057839e-01 -4.75735456e-01
  2.14566901e-01  3.98700893e-01  1.60110425e-02 -1.28722176e-01
  1.16918057e-01  1.88659146e-01  1.38182715e-01 -5.30545972e-02
  1.82373300e-01  2.80163646e-01  6.65339753e-02 -1.19911045e-01
 -9.34692621e-02 -4.29538906e-01 -3.11340958e-01 -2.37251908e-01
  1.39474824e-01  1.01728842e-01  5.52657470e-02 -6.70179278e-02
 -7.14764968e-02 -5.41095138e-02  2.61608660e-01 -5.19064516e-02
  2.84964386e-02 -3.13156068e-01  1.59950465e-01  5.02851531e-02
  2.66816304e-03 -4.30142552e-01  9.48322192e-02  1.89014412e-02
 -9.46501866e-02 -2.75488704e-01  3.98362041e-01  1.08019114e-01
  7.90294036e-02  1.73949212e-01  5.69175422e-01 -4.84141968e-02
 -1.98754981e-01 -1.73011929e-01  2.99046524e-02 -3.18487853e-01
  1.78957328e-01 -2.56290007e-02  2.50636667e-01 -3.39572616e-02
  1.41904593e-01  6.08773008e-02  1.09005511e-01  9.36013609e-02
  3.58058773e-02  2.08399564e-01 -2.22053438e-01  1.23525532e-02
  4.13684845e-02  3.51054996e-01  2.36335233e-01  3.67173642e-01
  7.54026026e-02  4.11634296e-02 -1.55058205e-02  1.45000905e-01
  4.01996672e-02  7.18979165e-02  2.70860851e-01  1.11672143e-02
  2.86793262e-01 -1.15168206e-01  1.63136542e-01  3.34255457e-01
  9.28868800e-02 -1.61029413e-01  6.74156994e-02  3.92176695e-02
 -3.88209382e-03 -3.60770002e-02  1.61587566e-01 -3.02768528e-01
  4.04153913e-02 -2.46674009e-02  9.51924399e-02  3.50776352e-02
 -1.31296247e-01  6.84908330e-02  2.24801868e-01 -6.86073378e-02
  1.80470034e-01  8.61698240e-02  8.62204731e-02  3.40421647e-01
 -2.54205704e-01 -3.14813480e-02  1.52321160e-01  3.20155406e-04
 -1.60432622e-01 -4.97358777e-02  3.19471717e-01 -1.02932543e-01
  1.67922825e-02  2.84517467e-01 -1.75748691e-01  2.41916385e-02
 -1.09906085e-01  1.52248681e-01 -2.18371177e+00  7.94394165e-02
 -2.74020255e-01 -1.95671096e-01  3.35319154e-02  1.05356753e-01
  2.36401316e-02 -2.01977491e-01  8.79502147e-02 -1.54107728e-03
  9.25134048e-02 -2.91054219e-01  2.85166614e-02 -5.19474387e-01
  7.98861086e-02 -7.80373141e-02 -5.17584980e-01  3.05886328e-01
 -3.35354614e-03 -1.74547508e-01 -1.77395772e-02  1.24024041e-01
  5.88263154e-01  2.60945916e-01  2.77373940e-02 -3.46012652e-01
  1.17651545e-01 -6.16295189e-02  5.38960516e-01 -4.20963466e-02
 -6.02753684e-02 -2.49597862e-01  1.57827452e-01 -3.58458042e-01
 -2.14870393e-01  1.14043407e-01  7.47394860e-02  4.33489114e-01
  5.50604574e-02  3.49479057e-02 -3.03525656e-01  3.99717033e-01
 -1.56569287e-01 -1.47571519e-01 -1.79415718e-02 -1.17213443e-01
  2.58415669e-01 -9.65448678e-04 -6.52939975e-01  1.64187610e-01
 -2.75089979e-01  1.04700603e-01  3.78646463e-01  2.12480709e-01
  2.52388064e-02 -1.80682376e-01 -2.23371573e-02  2.74529517e-01
 -8.30582529e-02  7.34770522e-02 -1.49121299e-01  2.89040685e-01
 -9.64077339e-02  1.39998913e-01 -5.18529750e-02  2.03785419e-01
 -4.01843488e-02 -2.27179468e-01  1.31436318e-01  7.05141202e-02
  2.21239209e-01  1.68379396e-02  5.30822249e-03  9.09771845e-02
 -3.36957097e-01  1.45571791e-02 -1.41237557e-01  2.34932065e-01
 -1.18492000e-01  1.81259960e-01  3.79403412e-01  1.13747336e-01
  1.46658093e-01 -1.89543739e-01 -3.35038662e-01  1.14265017e-01
 -1.25698403e-01 -4.50519063e-02  3.54121894e-01 -2.03795597e-01
  2.10096806e-01  9.79000404e-02 -6.05277605e-02  4.16957587e-02
 -7.05195218e-02  9.10293832e-02  3.45525965e-02 -2.61542588e-01
 -1.37931585e-01  4.64751124e-01 -7.55020976e-02  2.77176291e-01
 -7.17251062e-01  2.34846160e-01 -1.90595433e-01  1.44132823e-01
  1.97286457e-01  8.30760300e-02 -7.41168857e-02 -2.67624408e-01
  6.82992339e-02  1.63005129e-01 -8.97638500e-02 -1.24518529e-01]
bert/encoder/layer_0/intermediate/kernel:0
(768, 3072)
[[-0.01097579 -0.06013476 -0.01236262 ... -0.04928102  0.04457794
  -0.00840228]
 [-0.00171311  0.01117558  0.04488071 ... -0.06387912 -0.02321658
   0.03730807]
 [ 0.01582415  0.06597698  0.03938392 ...  0.02749458  0.01812946
   0.02294894]
 ...
 [-0.05492228 -0.05042638 -0.00806318 ... -0.0140854   0.00448108
  -0.01047425]
 [ 0.0136299  -0.02784145  0.00914709 ... -0.00041896  0.0050967
   0.00634244]
 [-0.01657706  0.00623198 -0.02798515 ...  0.00567417  0.02236175
   0.05959863]]
bert/encoder/layer_0/intermediate/bias:0
(3072,)
[-0.11562718 -0.09626868 -0.12312861 ... -0.11020678 -0.13577792
 -0.08330584]
bert/encoder/layer_0/output/dense/kernel:0
(3072, 768)
[[-0.03775229  0.06419642  0.00766715 ... -0.03990278 -0.06897397
  -0.05670168]
 [-0.01903432 -0.01290442 -0.06939939 ... -0.02197433  0.02440492
   0.00054611]
 [ 0.03070544  0.04522698  0.03319325 ...  0.01488623  0.03138908
  -0.00094017]
 ...
 [-0.01362467 -0.00486262 -0.00702676 ...  0.00995454 -0.00164189
   0.02942466]
 [ 0.01317306 -0.02335826  0.03070668 ...  0.00981448 -0.05737563
   0.0027358 ]
 [ 0.01642564 -0.00141842  0.00540151 ...  0.01688953  0.05447622
   0.02801805]]
bert/encoder/layer_0/output/dense/bias:0
(768,)
[-4.82054651e-02  1.97683841e-01  2.22102404e-02  2.87621729e-02
  4.33395319e-02  3.85981798e-02 -5.25218956e-02  5.65790646e-02
  1.95294917e-02  8.69396552e-02 -8.70694593e-03  3.83807793e-02
  4.07329835e-02 -1.06853060e-01 -1.24579333e-01  7.00873211e-02
  2.32394695e-01 -5.23301363e-02 -4.68749031e-02 -3.82919721e-02
 -6.09818585e-02 -9.70846713e-02 -1.29390629e-02 -5.95800169e-02
  1.85094811e-02  1.78740416e-02 -1.48470432e-01  8.88093710e-02
 -1.11289658e-01 -4.83891107e-02  4.95704189e-02 -1.97042916e-02
  4.12033200e-02 -4.33856715e-03  4.85357875e-03  1.22194521e-01
  1.68403052e-02  6.13640733e-02 -4.62401025e-02  1.92842726e-02
 -2.53473166e-02  4.24369387e-02 -1.03860041e-02 -3.24623100e-02
  2.70384401e-02 -4.77871187e-02  3.19032148e-02  1.13521583e-01
  5.94888330e-02 -1.11682810e-01 -7.56328925e-02 -2.08727680e-02
  9.58200991e-02  1.44364744e-01  5.35337580e-03 -3.19898054e-02
 -3.41041721e-02 -3.07517983e-02  4.43440229e-02 -1.67498738e-01
 -5.39051369e-02  4.87405844e-02 -2.46909812e-01 -1.19920276e-01
 -9.29497182e-03  6.21766560e-02 -1.06844477e-01 -2.57741809e-02
 -2.96765100e-03  1.08911678e-01 -1.38966337e-01  4.35697623e-02
 -2.99611129e-02 -2.29163468e-02  7.25790858e-02  4.43142344e-04
  2.10252944e-02  1.11640438e-01  8.69598985e-02  8.70763734e-02
  4.96483371e-02 -4.74331453e-02 -1.17594358e-02  9.20360014e-02
  5.09828031e-02 -1.34166032e-01 -9.57872625e-03  4.18827645e-02
 -4.74433191e-02  5.25491573e-02 -3.65607217e-02 -4.51584905e-02
